{"learner":{"attributes":{},"feature_names":["visit_month","updrs_3","updrs_4","updrs3_x_updrs4","updrs2_x_updrs3","updrs2_x_updrs4","visit_x_updrs3","visit_x_updrs4","visit_squared","updrs3_squared","updrs_4_squared","upd23b_clinical_state_on_medication_On"],"feature_types":["int","float","float","float","float","float","float","float","int","float","float","i"],"gradient_booster":{"model":{"gbtree_model_param":{"num_parallel_tree":"1","num_trees":"200"},"iteration_indptr":[0,1,2,3,4,5,6,7,8,9,10,11,12,13,14,15,16,17,18,19,20,21,22,23,24,25,26,27,28,29,30,31,32,33,34,35,36,37,38,39,40,41,42,43,44,45,46,47,48,49,50,51,52,53,54,55,56,57,58,59,60,61,62,63,64,65,66,67,68,69,70,71,72,73,74,75,76,77,78,79,80,81,82,83,84,85,86,87,88,89,90,91,92,93,94,95,96,97,98,99,100,101,102,103,104,105,106,107,108,109,110,111,112,113,114,115,116,117,118,119,120,121,122,123,124,125,126,127,128,129,130,131,132,133,134,135,136,137,138,139,140,141,142,143,144,145,146,147,148,149,150,151,152,153,154,155,156,157,158,159,160,161,162,163,164,165,166,167,168,169,170,171,172,173,174,175,176,177,178,179,180,181,182,183,184,185,186,187,188,189,190,191,192,193,194,195,196,197,198,199,200],"tree_info":[0,0,0,0,0,0,0,0,0,0,0,0,0,0,0,0,0,0,0,0,0,0,0,0,0,0,0,0,0,0,0,0,0,0,0,0,0,0,0,0,0,0,0,0,0,0,0,0,0,0,0,0,0,0,0,0,0,0,0,0,0,0,0,0,0,0,0,0,0,0,0,0,0,0,0,0,0,0,0,0,0,0,0,0,0,0,0,0,0,0,0,0,0,0,0,0,0,0,0,0,0,0,0,0,0,0,0,0,0,0,0,0,0,0,0,0,0,0,0,0,0,0,0,0,0,0,0,0,0,0,0,0,0,0,0,0,0,0,0,0,0,0,0,0,0,0,0,0,0,0,0,0,0,0,0,0,0,0,0,0,0,0,0,0,0,0,0,0,0,0,0,0,0,0,0,0,0,0,0,0,0,0,0,0,0,0,0,0,0,0,0,0,0,0,0,0,0,0,0,0],"trees":[{"base_weights":[-7.6457545E-2,-3.454478E0,7.0181537E0,-5.6926026E0,-7.038997E-1,4.985082E0,1.3249026E1,-6.4910474E0,-4.370373E0,-1.528867E0,7.6155275E-1,3.3301175E0,7.329495E0,1.0965478E1,1.714554E1,-6.5799856E-1,-3.8467176E0,-4.4839754E0,-5.4379785E-1,6.276244E-1,-2.527729E0,2.7704957E0,-3.329709E-1,5.3816257E0,1.6518114E0,9.778852E0,5.7667484E0,1.3006891E0,9.30947E0,1.4727805E0,2.0222569E0,-3.9954588E-1,-8.821702E-2,-4.945809E-1,-4.0598616E-1,9.267447E-2,-1.6114724E-1,1.7203042E-2,6.91628E-1,-3.2966968E-1,-1.8872087E-1,4.224948E-1,1.9803037E-1,4.595954E-2,-1.0336476E-1,6.816119E-1,3.9278802E-1,6.1664946E-2,2.589436E-1,1.2553283E0,8.750946E-1,3.7968582E-1,6.7394906E-1,7.917189E-1,1.0660197E0],"categories":[],"categories_nodes":[],"categories_segments":[],"categories_sizes":[],"default_left":[0,0,0,0,0,0,0,0,0,0,0,0,0,0,0,0,0,0,0,0,0,0,0,0,0,0,0,0,0,0,0,0,0,0,0,0,0,0,0,0,0,0,0,0,0,0,0,0,0,0,0,0,0,0,0],"id":0,"left_children":[1,3,5,7,9,11,13,15,17,19,21,23,25,27,29,-1,31,33,35,37,39,41,43,45,47,49,51,-1,53,-1,-1,-1,-1,-1,-1,-1,-1,-1,-1,-1,-1,-1,-1,-1,-1,-1,-1,-1,-1,-1,-1,-1,-1,-1,-1],"loss_changes":[4.0047035E4,6.964742E3,6.7619043E3,6.304043E2,6.1652E2,1.5585986E3,9.8650977E2,6.57041E1,1.0102246E2,7.038026E2,4.0550827E2,8.2088794E2,5.86666E2,1.6964355E2,5.1820312E1,0E0,3.089569E0,2.5166992E1,1.4053909E1,2.9677786E2,1.0361487E2,6.6337585E1,6.711499E1,1.9844897E2,1.2846274E2,7.266553E1,1.7561157E2,0E0,1.151123E1,0E0,0E0,0E0,0E0,0E0,0E0,0E0,0E0,0E0,0E0,0E0,0E0,0E0,0E0,0E0,0E0,0E0,0E0,0E0,0E0,0E0,0E0,0E0,0E0,0E0,0E0],"parents":[2147483647,0,0,1,1,2,2,3,3,4,4,5,5,6,6,7,7,8,8,9,9,10,10,11,11,12,12,13,13,14,14,16,16,17,17,18,18,19,19,20,20,21,21,22,22,23,23,24,24,25,25,26,26,28,28],"right_children":[2,4,6,8,10,12,14,16,18,20,22,24,26,28,30,-1,32,34,36,38,40,42,44,46,48,50,52,-1,54,-1,-1,-1,-1,-1,-1,-1,-1,-1,-1,-1,-1,-1,-1,-1,-1,-1,-1,-1,-1,-1,-1,-1,-1,-1,-1],"split_conditions":[2.07E2,4.8E1,6.12E2,2E0,1.26E2,3.6E2,9.66E2,6E0,2.5E1,1.5E1,2E1,2.8E1,3.2E1,4.2E1,1.292E3,-6.5799856E-1,2E1,1.8E1,5E0,6.4E1,8.5E1,1.6E1,2.6E1,2.3E1,2.73E2,2.4E1,4.41E2,1.3006891E0,8E2,1.4727805E0,2.0222569E0,-3.9954588E-1,-8.821702E-2,-4.945809E-1,-4.0598616E-1,9.267447E-2,-1.6114724E-1,1.7203042E-2,6.91628E-1,-3.2966968E-1,-1.8872087E-1,4.224948E-1,1.9803037E-1,4.595954E-2,-1.0336476E-1,6.816119E-1,3.9278802E-1,6.1664946E-2,2.589436E-1,1.2553283E0,8.750946E-1,3.7968582E-1,6.7394906E-1,7.917189E-1,1.0660197E0],"split_indices":[4,4,4,4,4,4,4,5,5,1,1,1,1,1,4,0,5,4,1,5,4,1,1,1,4,1,4,0,4,0,0,0,0,0,0,0,0,0,0,0,0,0,0,0,0,0,0,0,0,0,0,0,0,0,0],"split_type":[0,0,0,0,0,0,0,0,0,0,0,0,0,0,0,0,0,0,0,0,0,0,0,0,0,0,0,0,0,0,0,0,0,0,0,0,0,0,0,0,0,0,0,0,0,0,0,0,0,0,0,0,0,0,0],"sum_hessian":[1.669E3,1.131E3,5.38E2,6.23E2,5.08E2,4.07E2,1.31E2,3.86E2,2.37E2,3.25E2,1.83E2,2.4E2,1.67E2,8.5E1,4.6E1,3.72E2,1.4E1,2.3E2,7E0,1.03E2,2.22E2,6.4E1,1.19E2,1.07E2,1.33E2,6.3E1,1.04E2,3.5E1,5E1,2.9E1,1.7E1,1.3E1,1E0,1.05E2,1.25E2,3E0,4E0,9.7E1,6E0,9.9E1,1.23E2,2.1E1,4.3E1,5.6E1,6.3E1,5.2E1,5.5E1,6.4E1,6.9E1,1.4E1,4.9E1,3.6E1,6.8E1,2.8E1,2.2E1],"tree_param":{"num_deleted":"0","num_feature":"12","num_nodes":"55","size_leaf_vector":"1"}},{"base_weights":[-2.2563655E-2,-2.9995215E0,6.502788E0,-5.1072416E0,-6.4034575E-1,4.1337404E0,1.1244377E1,-5.8647227E0,-3.8792043E0,-1.9113939E0,5.379918E-1,3.1520002E0,6.2381396E0,9.556703E0,1.5094173E1,-5.9282684E-1,-3.4696168E-1,-3.493905E0,-4.5210576E-1,8.879622E-1,-2.336465E0,2.1358883E0,-5.983227E-1,5.425766E0,1.823612E0,7.5398574E0,3.5733094E0,1.2186842E0,8.690029E0,1.2805538E0,1.7323576E0,-4.3052173E-1,-2.6024866E-1,-1.2471204E-2,2.611312E-1,-1.5280037E-1,-2.9217288E-1,4.6931848E-1,1.7138039E-1,-1.5059532E-1,3.3874176E-2,7.548937E-1,4.511625E-1,8.62466E-2,2.8380454E-1,1.1426961E0,6.8856454E-1,3.9345485E-1,1.7268454E-1,7.314501E-1,1.0512866E0],"categories":[],"categories_nodes":[],"categories_segments":[],"categories_sizes":[],"default_left":[0,0,0,0,0,0,0,0,0,0,0,0,0,0,0,0,0,0,0,0,0,0,0,0,0,0,0,0,0,0,0,0,0,0,0,0,0,0,0,0,0,0,0,0,0,0,0,0,0,0,0],"id":1,"left_children":[1,3,5,7,9,11,13,15,17,19,21,23,25,27,29,-1,-1,31,-1,33,35,37,39,41,43,45,47,-1,49,-1,-1,-1,-1,-1,-1,-1,-1,-1,-1,-1,-1,-1,-1,-1,-1,-1,-1,-1,-1,-1,-1],"loss_changes":[3.2305014E4,5.6753037E3,5.8059355E3,5.381699E2,8.097991E2,7.013623E2,9.797676E2,3.589746E1,4.1825928E1,3.1145514E2,5.114933E2,7.1501196E2,3.5463184E2,1.744707E2,3.837793E1,0E0,0E0,9.727844E1,0E0,6.140738E1,1.0247058E2,1.1824609E2,1.4084401E2,1.3673926E2,1.4673007E2,1.0695654E2,1.8552155E1,0E0,1.6381006E2,0E0,0E0,0E0,0E0,0E0,0E0,0E0,0E0,0E0,0E0,0E0,0E0,0E0,0E0,0E0,0E0,0E0,0E0,0E0,0E0,0E0,0E0],"parents":[2147483647,0,0,1,1,2,2,3,3,4,4,5,5,6,6,7,7,8,8,9,9,10,10,11,11,12,12,13,13,14,14,17,17,19,19,20,20,21,21,22,22,23,23,24,24,25,25,26,26,28,28],"right_children":[2,4,6,8,10,12,14,16,18,20,22,24,26,28,30,-1,-1,32,-1,34,36,38,40,42,44,46,48,-1,50,-1,-1,-1,-1,-1,-1,-1,-1,-1,-1,-1,-1,-1,-1,-1,-1,-1,-1,-1,-1,-1,-1],"split_conditions":[2.17E2,4.8E1,5.25E2,2E0,1.08E2,3.9E2,9.66E2,5E0,1.2E1,1.2E1,2.1E1,2.8E1,3.7E1,3.5E1,1.224E3,-5.9282684E-1,-3.4696168E-1,1.5E1,-4.5210576E-1,7.5E1,1.8E1,1.3E1,1.68E2,2.1E1,2.99E2,2.4E1,4.5E1,1.2186842E0,7.4E2,1.2805538E0,1.7323576E0,-4.3052173E-1,-2.6024866E-1,-1.2471204E-2,2.611312E-1,-1.5280037E-1,-2.9217288E-1,4.6931848E-1,1.7138039E-1,-1.5059532E-1,3.3874176E-2,7.548937E-1,4.511625E-1,8.62466E-2,2.8380454E-1,1.1426961E0,6.8856454E-1,3.9345485E-1,1.7268454E-1,7.314501E-1,1.0512866E0],"split_indices":[4,4,4,4,4,4,4,5,1,1,1,1,1,1,4,0,0,4,0,4,1,1,4,1,4,1,1,0,4,0,0,0,0,0,0,0,0,0,0,0,0,0,0,0,0,0,0,0,0,0,0],"split_type":[0,0,0,0,0,0,0,0,0,0,0,0,0,0,0,0,0,0,0,0,0,0,0,0,0,0,0,0,0,0,0,0,0,0,0,0,0,0,0,0,0,0,0,0,0,0,0,0,0,0,0],"sum_hessian":[1.661E3,1.141E3,5.2E2,6.02E2,5.39E2,3.48E2,1.72E2,3.7E2,2.32E2,2.59E2,2.8E2,2.39E2,1.09E2,1.22E2,5E1,3.59E2,1.1E1,1.49E2,8.3E1,3.4E1,2.25E2,1.16E2,1.64E2,8.7E1,1.52E2,7.2E1,3.7E1,2.7E1,9.5E1,2.8E1,2.2E1,7.6E1,7.3E1,2.2E1,1.2E1,9.6E1,1.29E2,1.5E1,1.01E2,8.3E1,8.1E1,2.4E1,6.3E1,7.9E1,7.3E1,8E0,6.4E1,3E1,7E0,5.7E1,3.8E1],"tree_param":{"num_deleted":"0","num_feature":"12","num_nodes":"51","size_leaf_vector":"1"}},{"base_weights":[-2.352151E-2,-2.9494185E0,5.306369E0,-4.808605E0,-9.428532E-1,2.9750416E0,9.002547E0,-5.324244E0,-3.716238E0,-1.8159155E0,1.5260999E-1,5.4084682E0,2.2351518E0,7.4619827E0,1.1866723E1,-5.3713316E-1,-2.8282216E-1,-3.800425E0,-1.092694E0,-8.7052166E-1,-2.7355683E0,2.1419694E0,-7.423086E-1,4.513954E0,8.61576E-1,9.669306E-1,3.6617796E0,8.685351E0,5.3350487E0,1.0574254E1,1.5255617E0,-3.384685E-1,-4.2466116E-1,9.499383E-3,-2.0072083E-1,-1.07637994E-1,4.985272E-1,-3.4744868E-1,-2.2536121E-1,4.3309018E-1,1.5766762E-1,-1.3690531E-1,4.4956543E-3,6.427601E-1,3.435558E-1,1.6565345E-1,1.3127116E-2,5.0411767E-1,2.515659E-1,1.1207188E0,7.930682E-1,3.5132703E-1,6.22484E-1,1.2704793E0,8.860165E-1],"categories":[],"categories_nodes":[],"categories_segments":[],"categories_sizes":[],"default_left":[0,0,0,0,0,0,0,0,0,0,0,0,0,0,0,0,0,0,0,0,0,0,0,0,0,0,0,0,0,0,0,0,0,0,0,0,0,0,0,0,0,0,0,0,0,0,0,0,0,0,0,0,0,0,0],"id":2,"left_children":[1,3,5,7,9,11,13,15,17,19,21,23,25,27,29,-1,-1,31,33,35,37,39,41,43,-1,45,47,49,51,53,-1,-1,-1,-1,-1,-1,-1,-1,-1,-1,-1,-1,-1,-1,-1,-1,-1,-1,-1,-1,-1,-1,-1,-1,-1],"loss_changes":[2.5653352E4,3.9573418E3,4.9969297E3,2.9057422E2,4.8995776E2,6.3427905E2,9.0425195E2,2.8530273E1,3.560376E1,2.4540741E2,4.075018E2,1.9923315E2,4.9762976E2,3.4136523E2,1.7594629E2,0E0,0E0,1.7903076E1,7.7937756E0,1.7654187E2,4.3452026E1,8.102615E1,7.802098E1,1.1618347E2,0E0,8.507109E1,1.9284229E2,8.8112305E1,7.052771E1,1.0289795E2,0E0,0E0,0E0,0E0,0E0,0E0,0E0,0E0,0E0,0E0,0E0,0E0,0E0,0E0,0E0,0E0,0E0,0E0,0E0,0E0,0E0,0E0,0E0,0E0,0E0],"parents":[2147483647,0,0,1,1,2,2,3,3,4,4,5,5,6,6,7,7,8,8,9,9,10,10,11,11,12,12,13,13,14,14,17,17,18,18,19,19,20,20,21,21,22,22,23,23,25,25,26,26,27,27,28,28,29,29],"right_children":[2,4,6,8,10,12,14,16,18,20,22,24,26,28,30,-1,-1,32,34,36,38,40,42,44,-1,46,48,50,52,54,-1,-1,-1,-1,-1,-1,-1,-1,-1,-1,-1,-1,-1,-1,-1,-1,-1,-1,-1,-1,-1,-1,-1,-1,-1],"split_conditions":[1.89E2,3.5E1,4.56E2,2E0,1.02E2,2.4E1,8E2,7E0,2.7E1,1.7E1,1.9E1,3.01E2,3.12E2,4E1,1.224E3,-5.3713316E-1,-2.8282216E-1,9E0,4E0,5E1,6.8E1,1.3E1,1.52E2,1.9E1,8.61576E-1,3.2E1,3.2E1,2.9E1,5.67E2,4.8E1,1.5255617E0,-3.384685E-1,-4.2466116E-1,9.499383E-3,-2.0072083E-1,-1.07637994E-1,4.985272E-1,-3.4744868E-1,-2.2536121E-1,4.3309018E-1,1.5766762E-1,-1.3690531E-1,4.4956543E-3,6.427601E-1,3.435558E-1,1.6565345E-1,1.3127116E-2,5.0411767E-1,2.515659E-1,1.1207188E0,7.930682E-1,3.5132703E-1,6.22484E-1,1.2704793E0,8.860165E-1],"split_indices":[4,4,4,4,4,1,4,5,5,1,1,4,4,1,4,0,0,1,1,5,4,1,4,1,0,1,1,1,4,1,0,0,0,0,0,0,0,0,0,0,0,0,0,0,0,0,0,0,0,0,0,0,0,0,0],"split_type":[0,0,0,0,0,0,0,0,0,0,0,0,0,0,0,0,0,0,0,0,0,0,0,0,0,0,0,0,0,0,0,0,0,0,0,0,0,0,0,0,0,0,0,0,0,0,0,0,0,0,0,0,0,0,0],"sum_hessian":[1.643E3,1.061E3,5.82E2,5.5E2,5.11E2,3.58E2,2.24E2,3.71E2,1.79E2,2.84E2,2.27E2,8.2E1,2.76E2,1.48E2,7.6E1,3.63E2,8E0,1.73E2,6E0,1.41E2,1.43E2,7E1,1.57E2,6.6E1,1.6E1,1.47E2,1.29E2,9.2E1,5.6E1,5.8E1,1.8E1,9.4E1,7.9E1,3E0,3E0,1.37E2,4E0,5.4E1,8.9E1,1.3E1,5.7E1,8.7E1,7E1,2.2E1,4.4E1,8E1,6.7E1,5.7E1,7.2E1,1.8E1,7.4E1,2E1,3.6E1,2.3E1,3.5E1],"tree_param":{"num_deleted":"0","num_feature":"12","num_nodes":"55","size_leaf_vector":"1"}},{"base_weights":[1.7787625E-1,-2.1626396E0,6.0191264E0,-3.8866835E0,1.9654886E-1,4.313965E0,9.975925E0,-4.569005E0,-2.614414E0,1.8785881E0,-3.1327102E-1,3.111399E0,5.663355E0,8.520286E0,1.3850484E1,-4.701259E0,-3.232795E0,-9.022096E-1,-2.9228828E0,1.2746114E0,6.31737E0,-1.469064E0,7.323645E-1,4.940732E0,1.950649E0,6.7777376E0,3.4329276E0,9.960844E0,7.0047517E0,1.4019516E0,3.7981543E-1,-4.8311502E-1,-3.863043E-1,-3.3965823E-1,-7.457755E-2,-1.5371381E-1,8.537116E-2,-3.657491E-1,-2.4811304E-1,2.3243905E-4,2.595788E-1,8.52519E-1,4.1435605E-1,-1.09186135E-1,-2.4535286E-1,1.7222546E-1,-3.0352492E-2,4.3422848E-1,6.2197363E-1,2.25294E-1,-2.2798777E-3,9.9072343E-1,6.227839E-1,2.217661E-1,4.2370987E-1,8.308471E-1,1.1041827E0,5.4784715E-1,7.97826E-1],"categories":[],"categories_nodes":[],"categories_segments":[],"categories_sizes":[],"default_left":[0,0,0,0,0,0,0,0,0,0,0,0,0,0,0,0,0,0,0,0,0,0,0,0,0,0,0,0,0,0,0,0,0,0,0,0,0,0,0,0,0,0,0,0,0,0,0,0,0,0,0,0,0,0,0,0,0,0,0],"id":3,"left_children":[1,3,5,7,9,11,13,15,17,19,21,23,25,27,29,31,33,35,37,39,41,43,45,47,49,51,53,55,57,-1,-1,-1,-1,-1,-1,-1,-1,-1,-1,-1,-1,-1,-1,-1,-1,-1,-1,-1,-1,-1,-1,-1,-1,-1,-1,-1,-1,-1,-1],"loss_changes":[2.3131588E4,4.9141157E3,3.222504E3,5.9398535E2,4.3878995E2,5.341079E2,6.997842E2,6.4856445E1,1.2729089E2,3.1097736E2,4.760314E2,3.7682092E2,3.7193506E2,1.6601416E2,1.13203125E1,2.5976562E1,1.5389984E1,4.479276E1,5.8424316E1,1.7817099E2,3.18667E1,6.6762146E1,2.12784E2,2.6571167E1,6.746216E1,1.1899414E2,4.4354065E1,2.927246E0,3.949878E1,0E0,0E0,0E0,0E0,0E0,0E0,0E0,0E0,0E0,0E0,0E0,0E0,0E0,0E0,0E0,0E0,0E0,0E0,0E0,0E0,0E0,0E0,0E0,0E0,0E0,0E0,0E0,0E0,0E0,0E0],"parents":[2147483647,0,0,1,1,2,2,3,3,4,4,5,5,6,6,7,7,8,8,9,9,10,10,11,11,12,12,13,13,14,14,15,15,16,16,17,17,18,18,19,19,20,20,21,21,22,22,23,23,24,24,25,25,26,26,27,27,28,28],"right_children":[2,4,6,8,10,12,14,16,18,20,22,24,26,28,30,32,34,36,38,40,42,44,46,48,50,52,54,56,58,-1,-1,-1,-1,-1,-1,-1,-1,-1,-1,-1,-1,-1,-1,-1,-1,-1,-1,-1,-1,-1,-1,-1,-1,-1,-1,-1,-1,-1,-1],"split_conditions":[2.52E2,7E1,6.12E2,1.6E1,1.7E1,3.9E2,1.08E3,4E0,8E0,6.4E1,1.52E2,2.8E1,3.8E1,4.6E1,5.76E3,1E0,2E1,3.6E1,3.5E1,9.9E1,1.1E1,2.6E1,2.6E1,3.3E2,3.9E1,2.6E1,4.92E2,7.14E2,8E2,1.4019516E0,3.7981543E-1,-4.8311502E-1,-3.863043E-1,-3.3965823E-1,-7.457755E-2,-1.5371381E-1,8.537116E-2,-3.657491E-1,-2.4811304E-1,2.3243905E-4,2.595788E-1,8.52519E-1,4.1435605E-1,-1.09186135E-1,-2.4535286E-1,1.7222546E-1,-3.0352492E-2,4.3422848E-1,6.2197363E-1,2.25294E-1,-2.2798777E-3,9.9072343E-1,6.227839E-1,2.217661E-1,4.2370987E-1,8.308471E-1,1.1041827E0,5.4784715E-1,7.97826E-1],"split_indices":[4,4,4,4,1,4,4,5,1,5,4,1,1,1,6,4,5,4,4,4,1,1,1,4,1,1,4,4,4,0,0,0,0,0,0,0,0,0,0,0,0,0,0,0,0,0,0,0,0,0,0,0,0,0,0,0,0,0,0],"split_type":[0,0,0,0,0,0,0,0,0,0,0,0,0,0,0,0,0,0,0,0,0,0,0,0,0,0,0,0,0,0,0,0,0,0,0,0,0,0,0,0,0,0,0,0,0,0,0,0,0,0,0,0,0,0,0,0,0,0,0],"sum_hessian":[1.69E3,1.207E3,4.83E2,6.97E2,5.1E2,3.39E2,1.44E2,4.52E2,2.45E2,1.18E2,3.92E2,1.81E2,1.58E2,1.07E2,3.7E1,4.09E2,4.3E1,3.8E1,2.07E2,1.05E2,1.3E1,1.86E2,2.06E2,6.9E1,1.12E2,1.04E2,5.4E1,5.2E1,5.5E1,3.6E1,1E0,3.5E2,5.9E1,4E1,3E0,2.8E1,1E1,7.5E1,1.32E2,5.4E1,5.1E1,5E0,8E0,1.36E2,5E1,1.05E2,1.01E2,5E1,1.9E1,9.7E1,1.5E1,1.3E1,9.1E1,2.3E1,3.1E1,2.4E1,2.8E1,2.4E1,3.1E1],"tree_param":{"num_deleted":"0","num_feature":"12","num_nodes":"59","size_leaf_vector":"1"}},{"base_weights":[1.0882105E-2,-2.1943264E0,4.7985954E0,-3.7405574E0,-3.4413445E-1,3.4542508E0,9.038942E0,-4.265161E0,-2.9047968E0,-5.519107E-1,2.9578743E0,2.4639153E0,4.961767E0,7.8527236E0,1.2910255E0,-4.341128E-1,-3.063874E-1,-2.9551828E0,8.445685E-1,-1.250383E0,3.2851744E-1,4.945E0,1.0305352E0,3.9755096E0,1.3684851E0,5.9932175E0,3.3937962E0,8.143555E0,4.4499674E-1,-3.103197E-1,-2.1835165E-1,1.4555947E-1,-4.942551E-2,1.7938001E-2,-1.7608896E-1,1.3207017E-1,-6.576335E-2,-3.9727163E-2,5.354968E-1,1.6511716E-1,-7.8922644E-2,6.130511E-1,3.3411202E-1,6.407363E-2,2.2567885E-1,7.4124837E-1,5.1411366E-1,2.232952E-1,4.1104373E-1,8.9402E-1,7.148239E-1],"categories":[],"categories_nodes":[],"categories_segments":[],"categories_sizes":[],"default_left":[0,0,0,0,0,0,0,0,0,0,0,0,0,0,0,0,0,0,0,0,0,0,0,0,0,0,0,0,0,0,0,0,0,0,0,0,0,0,0,0,0,0,0,0,0,0,0,0,0,0,0],"id":4,"left_children":[1,3,5,7,9,11,13,15,17,19,21,23,25,27,-1,-1,-1,29,31,33,35,37,39,41,43,45,47,49,-1,-1,-1,-1,-1,-1,-1,-1,-1,-1,-1,-1,-1,-1,-1,-1,-1,-1,-1,-1,-1,-1,-1],"loss_changes":[1.761056E4,3.265774E3,2.9672344E3,2.6032227E2,3.590796E2,5.864463E2,4.7723926E2,2.1377441E1,4.8402588E1,3.0235352E2,1.1362982E2,3.9858594E2,2.351914E2,6.1734375E1,0E0,0E0,0E0,2.063623E1,3.99166E0,2.0030939E2,2.1416919E2,3.4979736E1,2.0503124E1,1.18962524E2,9.0997986E1,7.5568115E1,4.489569E1,7.4555664E0,0E0,0E0,0E0,0E0,0E0,0E0,0E0,0E0,0E0,0E0,0E0,0E0,0E0,0E0,0E0,0E0,0E0,0E0,0E0,0E0,0E0,0E0,0E0],"parents":[2147483647,0,0,1,1,2,2,3,3,4,4,5,5,6,6,7,7,8,8,9,9,10,10,11,11,12,12,13,13,17,17,18,18,19,19,20,20,21,21,22,22,23,23,24,24,25,25,26,26,27,27],"right_children":[2,4,6,8,10,12,14,16,18,20,22,24,26,28,-1,-1,-1,30,32,34,36,38,40,42,44,46,48,50,-1,-1,-1,-1,-1,-1,-1,-1,-1,-1,-1,-1,-1,-1,-1,-1,-1,-1,-1,-1,-1,-1,-1],"split_conditions":[2.16E2,4.8E1,6.3E2,2E0,5E1,3.9E2,1.197E3,1E0,4E1,1.17E2,1.6E1,2.8E1,3.7E1,5.5E1,1.2910255E0,-4.341128E-1,-3.063874E-1,1.1E1,5E0,1.5E1,2.4E1,7.5E1,2.4E1,2E1,3.06E2,3E1,4.92E2,4.6E1,4.4499674E-1,-3.103197E-1,-2.1835165E-1,1.4555947E-1,-4.942551E-2,1.7938001E-2,-1.7608896E-1,1.3207017E-1,-6.576335E-2,-3.9727163E-2,5.354968E-1,1.6511716E-1,-7.8922644E-2,6.130511E-1,3.3411202E-1,6.407363E-2,2.2567885E-1,7.4124837E-1,5.1411366E-1,2.232952E-1,4.1104373E-1,8.9402E-1,7.148239E-1],"split_indices":[4,4,4,4,5,4,4,5,5,4,1,1,1,1,0,0,0,5,1,1,1,4,1,1,4,1,4,1,0,0,0,0,0,0,0,0,0,0,0,0,0,0,0,0,0,0,0,0,0,0,0],"split_type":[0,0,0,0,0,0,0,0,0,0,0,0,0,0,0,0,0,0,0,0,0,0,0,0,0,0,0,0,0,0,0,0,0,0,0,0,0,0,0,0,0,0,0,0,0,0,0,0,0,0,0],"sum_hessian":[1.666E3,1.141E3,5.25E2,6.21E2,5.2E2,4E2,1.25E2,3.79E2,2.42E2,4.9E2,3E1,2.43E2,1.57E2,9.8E1,2.7E1,3.54E2,2.5E1,2.39E2,3E0,2.73E2,2.17E2,1.4E1,1.6E1,1.01E2,1.42E2,9.3E1,6.4E1,8.9E1,9E0,1.98E2,4.1E1,2E0,1E0,7.2E1,2.01E2,1.08E2,1.09E2,1E0,1.3E1,1.2E1,4E0,2.1E1,8E1,7.9E1,6.3E1,3.2E1,6.1E1,2.6E1,3.8E1,4.5E1,4.4E1],"tree_param":{"num_deleted":"0","num_feature":"12","num_nodes":"51","size_leaf_vector":"1"}},{"base_weights":[-7.439804E-3,-2.225796E0,3.8665795E0,-3.4494758E0,-7.156962E-1,2.1224911E0,6.8591805E0,-3.8274634E0,-2.6643302E0,5.865683E-1,-1.1538142E0,4.251348E0,1.6353433E0,5.782449E0,1.0731592E1,-3.9078167E-1,-2.7501258E-1,-2.7840648E0,-1.03393E0,-7.431495E-1,1.7640617E0,-2.1879647E0,-5.90023E-1,3.578179E0,7.3190117E0,4.4806582E-1,2.6097426E0,7.8078375E0,5.044014E0,9.137955E0,1.4319237E0,-5.805359E-2,-2.8430316E-1,4.6698297E-3,-1.7595375E-1,6.139654E-2,-1.3692003E-1,4.468206E-1,1.19115904E-1,-1.9303733E-1,-2.892365E-1,6.1224145E-3,-1.1937292E-1,3.019101E-1,5.0914115E-1,3.6102837E-1,8.154112E-1,7.192327E-2,-8.8230446E-2,3.5774907E-1,1.4939561E-1,6.91189E-1,9.550482E-1,3.9251402E-1,6.4424497E-1,9.7303355E-1,4.5543313E-1],"categories":[],"categories_nodes":[],"categories_segments":[],"categories_sizes":[],"default_left":[0,0,0,0,0,0,0,0,0,0,0,0,0,0,0,0,0,0,0,0,0,0,0,0,0,0,0,0,0,0,0,0,0,0,0,0,0,0,0,0,0,0,0,0,0,0,0,0,0,0,0,0,0,0,0,0,0],"id":5,"left_children":[1,3,5,7,9,11,13,15,17,19,21,23,25,27,29,-1,-1,31,33,35,37,39,41,43,45,47,49,51,53,55,-1,-1,-1,-1,-1,-1,-1,-1,-1,-1,-1,-1,-1,-1,-1,-1,-1,-1,-1,-1,-1,-1,-1,-1,-1,-1,-1],"loss_changes":[1.45152E4,1.9821533E3,3.1953486E3,1.6579004E2,2.756797E2,3.9750403E2,8.802617E2,2.3707031E1,3.5383667E1,1.923305E2,2.091883E2,1.2249548E2,3.678761E2,2.2833252E2,1.4358691E2,0E0,0E0,2.1997559E1,1.1843845E1,5.0118774E1,9.53764E1,1.746045E1,9.246613E1,3.6235413E1,7.727234E0,5.2943672E1,1.8362036E2,5.808838E0,1.8437866E2,5.3434082E1,0E0,0E0,0E0,0E0,0E0,0E0,0E0,0E0,0E0,0E0,0E0,0E0,0E0,0E0,0E0,0E0,0E0,0E0,0E0,0E0,0E0,0E0,0E0,0E0,0E0,0E0,0E0],"parents":[2147483647,0,0,1,1,2,2,3,3,4,4,5,5,6,6,7,7,8,8,9,9,10,10,11,11,12,12,13,13,14,14,17,17,18,18,19,19,20,20,21,21,22,22,23,23,24,24,25,25,26,26,27,27,28,28,29,29],"right_children":[2,4,6,8,10,12,14,16,18,20,22,24,26,28,30,-1,-1,32,34,36,38,40,42,44,46,48,50,52,54,56,-1,-1,-1,-1,-1,-1,-1,-1,-1,-1,-1,-1,-1,-1,-1,-1,-1,-1,-1,-1,-1,-1,-1,-1,-1,-1,-1],"split_conditions":[1.76E2,4E1,4.56E2,3E0,1.5E1,2.2E1,9.66E2,1E0,1.7E1,7.5E1,9E1,1.08E2,2.75E2,3.4E1,1.404E3,-3.9078167E-1,-2.7501258E-1,2E0,3.2E1,1E1,1E1,2.3E1,2.2E1,2.64E2,3.12E2,3.5E1,3.3E1,5.67E2,6.8E2,5.9E1,1.4319237E0,-5.805359E-2,-2.8430316E-1,4.6698297E-3,-1.7595375E-1,6.139654E-2,-1.3692003E-1,4.468206E-1,1.19115904E-1,-1.9303733E-1,-2.892365E-1,6.1224145E-3,-1.1937292E-1,3.019101E-1,5.0914115E-1,3.6102837E-1,8.154112E-1,7.192327E-2,-8.8230446E-2,3.5774907E-1,1.4939561E-1,6.91189E-1,9.550482E-1,3.9251402E-1,6.4424497E-1,9.7303355E-1,4.5543313E-1],"split_indices":[4,4,4,4,1,1,4,5,5,4,4,5,4,1,4,0,0,1,3,1,1,1,1,4,6,1,1,4,4,1,0,0,0,0,0,0,0,0,0,0,0,0,0,0,0,0,0,0,0,0,0,0,0,0,0,0,0],"split_type":[0,0,0,0,0,0,0,0,0,0,0,0,0,0,0,0,0,0,0,0,0,0,0,0,0,0,0,0,0,0,0,0,0,0,0,0,0,0,0,0,0,0,0,0,0,0,0,0,0,0,0,0,0,0,0,0,0],"sum_hessian":[1.687E3,1.073E3,6.14E2,5.92E2,4.81E2,3.89E2,2.25E2,3.97E2,1.95E2,1.21E2,3.6E2,7.1E1,3.18E2,1.78E2,4.7E1,3.67E2,3E1,1.81E2,1.4E1,5.7E1,6.4E1,1.26E2,2.34E2,6E1,1.1E1,1.44E2,1.74E2,4.5E1,1.33E2,3.5E1,1.2E1,5E0,1.76E2,6E0,8E0,1.8E1,3.9E1,1E1,5.4E1,9.5E1,3.1E1,1.13E2,1.21E2,4.6E1,1.4E1,3E0,8E0,1.2E2,2.4E1,9.2E1,8.2E1,3.3E1,1.2E1,7.6E1,5.7E1,3E1,5E0],"tree_param":{"num_deleted":"0","num_feature":"12","num_nodes":"57","size_leaf_vector":"1"}},{"base_weights":[-1.5908575E-2,-1.9022845E0,3.696561E0,-3.1575744E0,-5.76058E-1,2.560322E0,7.0472393E0,-3.4558396E0,-2.5197926E0,-1.60726E0,-8.558059E-2,1.7834826E0,3.8735006E0,6.0705934E0,9.97098E0,-3.50582E-1,-2.0840542E0,-2.6095283E0,-6.884619E-1,9.786581E-3,-2.0440521E0,2.6940818E0,-4.0540358E-1,3.828599E0,1.2225578E0,6.1066637E0,2.9696715E0,8.118763E-1,5.364367E0,8.42943E0,1.2094702E0,-1.5639132E-1,-2.9155824E-1,-2.2422074E-1,-2.906104E-1,-5.1037855E-3,-1.6318385E-1,1.4351623E-1,-2.4966922E-2,-1.6157986E-1,-2.4426816E-1,6.13108E-1,2.1094032E-1,-9.90854E-2,2.3046352E-2,6.44692E-1,3.3330956E-1,1.8802099E-1,4.450589E-2,5.3550786E-1,8.126547E-1,3.2542935E-1,5.299425E-2,4.2773056E-1,6.4532024E-1,8.639537E-1,1.9035368E-1],"categories":[],"categories_nodes":[],"categories_segments":[],"categories_sizes":[],"default_left":[0,0,0,0,0,0,0,0,0,0,0,0,0,0,0,0,0,0,0,0,0,0,0,0,0,0,0,0,0,0,0,0,0,0,0,0,0,0,0,0,0,0,0,0,0,0,0,0,0,0,0,0,0,0,0,0,0],"id":6,"left_children":[1,3,5,7,9,11,13,15,17,19,21,23,25,27,29,-1,31,33,35,37,39,41,43,45,47,49,51,-1,53,55,-1,-1,-1,-1,-1,-1,-1,-1,-1,-1,-1,-1,-1,-1,-1,-1,-1,-1,-1,-1,-1,-1,-1,-1,-1,-1,-1],"loss_changes":[1.1702231E4,1.8427783E3,2.1253945E3,9.953174E1,2.7298438E2,4.2358618E2,3.449453E2,1.9089844E1,2.8605469E1,1.2291849E2,3.2735513E2,3.0160992E2,2.9673535E2,1.1411328E2,9.358643E0,0E0,2.3604736E0,1.2657227E1,5.930024E0,1.4411552E1,1.9440979E1,6.3429565E1,1.2307701E2,5.246289E1,1.0705252E2,2.3278687E1,7.6742615E1,0E0,7.182251E1,1.5090454E1,0E0,0E0,0E0,0E0,0E0,0E0,0E0,0E0,0E0,0E0,0E0,0E0,0E0,0E0,0E0,0E0,0E0,0E0,0E0,0E0,0E0,0E0,0E0,0E0,0E0,0E0,0E0],"parents":[2147483647,0,0,1,1,2,2,3,3,4,4,5,5,6,6,7,7,8,8,9,9,10,10,11,11,12,12,13,13,14,14,16,16,17,17,18,18,19,19,20,20,21,21,22,22,23,23,24,24,25,25,26,26,28,28,29,29],"right_children":[2,4,6,8,10,12,14,16,18,20,22,24,26,28,30,-1,32,34,36,38,40,42,44,46,48,50,52,-1,54,56,-1,-1,-1,-1,-1,-1,-1,-1,-1,-1,-1,-1,-1,-1,-1,-1,-1,-1,-1,-1,-1,-1,-1,-1,-1,-1,-1],"split_conditions":[1.96E2,3.5E1,5.67E2,1E0,7.6E1,3.6E2,1.08E3,6E0,1.7E1,1.1E1,1.3E1,2.3E1,3E1,3.9E1,1.404E3,-3.50582E-1,1.98E2,8E0,7E0,7E0,1.8E1,8E0,1.26E2,1.6E1,3.1E1,1.1E2,4.4E1,8.118763E-1,8E2,6.1E1,1.2094702E0,-1.5639132E-1,-2.9155824E-1,-2.2422074E-1,-2.906104E-1,-5.1037855E-3,-1.6318385E-1,1.4351623E-1,-2.4966922E-2,-1.6157986E-1,-2.4426816E-1,6.13108E-1,2.1094032E-1,-9.90854E-2,2.3046352E-2,6.44692E-1,3.3330956E-1,1.8802099E-1,4.450589E-2,5.3550786E-1,8.126547E-1,3.2542935E-1,5.299425E-2,4.2773056E-1,6.4532024E-1,8.639537E-1,1.9035368E-1],"split_indices":[4,4,4,4,4,4,4,5,5,1,1,1,1,1,4,0,7,1,1,1,1,1,4,1,1,5,1,0,4,1,0,0,0,0,0,0,0,0,0,0,0,0,0,0,0,0,0,0,0,0,0,0,0,0,0,0,0],"split_type":[0,0,0,0,0,0,0,0,0,0,0,0,0,0,0,0,0,0,0,0,0,0,0,0,0,0,0,0,0,0,0,0,0,0,0,0,0,0,0,0,0,0,0,0,0,0,0,0,0,0,0,0,0,0,0,0,0],"sum_hessian":[1.669E3,1.107E3,5.62E2,5.68E2,5.39E2,4.21E2,1.41E2,3.84E2,1.84E2,1.73E2,3.66E2,2.66E2,1.55E2,1.08E2,3.3E1,3.69E2,1.5E1,1.75E2,9E0,3.7E1,1.36E2,3.7E1,3.29E2,5.6E1,2.1E2,4.3E1,1.12E2,2.5E1,8.3E1,2.2E1,1.1E1,1.1E1,4E0,8.2E1,9.3E1,6E0,3E0,5E0,3.2E1,6.8E1,6.8E1,4E0,3.3E1,1.71E2,1.58E2,7E0,4.9E1,1.13E2,9.7E1,3.4E1,9E0,1E2,1.2E1,4.4E1,3.9E1,2.1E1,1E0],"tree_param":{"num_deleted":"0","num_feature":"12","num_nodes":"57","size_leaf_vector":"1"}},{"base_weights":[5.4662935E-2,-1.464793E0,3.9219627E0,-2.5726304E0,5.3491272E-2,2.675513E0,6.2047834E0,-2.9956744E0,-1.7613627E0,9.7681063E-1,-4.2198524E-1,4.114401E0,2.1111386E0,5.2446795E0,8.285712E0,-3.0404403E0,-1.5689895E0,-1.002918E0,-2.2038436E0,4.0430212E-1,2.7115622E0,-1.2813897E0,2.623145E-1,3.2748733E0,5.572356E0,1.4317381E0,3.270201E0,7.464653E-1,4.6813035E0,7.1262946E0,1.0185355E1,-3.1412002E-1,-2.5920305E-1,-1.1811944E-1,-2.4370761E-1,-1.7456725E-1,-4.850119E-2,-2.423648E-1,-1.7069702E-1,2.5906503E-1,-3.2670498E-3,3.6971384E-1,1.9249494E-1,-1.02329314E-1,-2.1001843E-1,1.02900796E-1,-1.7705878E-2,3.9375457E-1,2.547217E-1,4.67691E-1,7.45022E-1,1.8505082E-1,6.400257E-2,3.6973476E-1,1.4195023E-1,4.987587E-1,3.1775454E-1,7.995085E-1,5.2520305E-1,6.844577E-1,1.1839442E0],"categories":[],"categories_nodes":[],"categories_segments":[],"categories_sizes":[],"default_left":[0,0,0,0,0,0,0,0,0,0,0,0,0,0,0,0,0,0,0,0,0,0,0,0,0,0,0,0,0,0,0,0,0,0,0,0,0,0,0,0,0,0,0,0,0,0,0,0,0,0,0,0,0,0,0,0,0,0,0,0,0],"id":7,"left_children":[1,3,5,7,9,11,13,15,17,19,21,23,25,27,29,31,33,35,37,39,41,43,45,47,49,51,53,-1,55,57,59,-1,-1,-1,-1,-1,-1,-1,-1,-1,-1,-1,-1,-1,-1,-1,-1,-1,-1,-1,-1,-1,-1,-1,-1,-1,-1,-1,-1,-1,-1],"loss_changes":[9.895375E3,2.0336902E3,1.3349736E3,2.3462158E2,2.2474973E2,2.422439E2,2.9019482E2,2.4480469E1,7.900427E1,1.7171355E2,1.9911061E2,8.701477E1,1.7171063E2,1.11385254E2,3.974292E1,1.1873291E1,2.5075722E0,3.4158943E1,1.2463623E1,1.2619406E2,2.6219666E1,2.9550095E1,6.3849613E1,1.7455505E1,1.5601746E1,4.6226593E1,5.957428E1,0E0,2.8366943E1,1.5001587E1,1.2905029E1,0E0,0E0,0E0,0E0,0E0,0E0,0E0,0E0,0E0,0E0,0E0,0E0,0E0,0E0,0E0,0E0,0E0,0E0,0E0,0E0,0E0,0E0,0E0,0E0,0E0,0E0,0E0,0E0,0E0,0E0],"parents":[2147483647,0,0,1,1,2,2,3,3,4,4,5,5,6,6,7,7,8,8,9,9,10,10,11,11,12,12,13,13,14,14,15,15,16,16,17,17,18,18,19,19,20,20,21,21,22,22,23,23,24,24,25,25,26,26,28,28,29,29,30,30],"right_children":[2,4,6,8,10,12,14,16,18,20,22,24,26,28,30,32,34,36,38,40,42,44,46,48,50,52,54,-1,56,58,60,-1,-1,-1,-1,-1,-1,-1,-1,-1,-1,-1,-1,-1,-1,-1,-1,-1,-1,-1,-1,-1,-1,-1,-1,-1,-1,-1,-1,-1,-1],"split_conditions":[2.52E2,7E1,5.55E2,1.6E1,1.9E1,2.8E1,9.66E2,9E0,1.2E1,1.4E2,1.5E2,3.4E2,4.29E2,3.5E1,1.292E3,1E0,7E0,2.8E1,5.7E1,1.1E1,1.7E1,2.9E1,2.5E1,2.3E1,9.1E1,3.6E1,4.1E1,7.464653E-1,5.1E1,5.4E1,4.8E1,-3.1412002E-1,-2.5920305E-1,-1.1811944E-1,-2.4370761E-1,-1.7456725E-1,-4.850119E-2,-2.423648E-1,-1.7069702E-1,2.5906503E-1,-3.2670498E-3,3.6971384E-1,1.9249494E-1,-1.02329314E-1,-2.1001843E-1,1.02900796E-1,-1.7705878E-2,3.9375457E-1,2.547217E-1,4.67691E-1,7.45022E-1,1.8505082E-1,6.400257E-2,3.6973476E-1,1.4195023E-1,4.987587E-1,3.1775454E-1,7.995085E-1,5.2520305E-1,6.844577E-1,1.1839442E0],"split_indices":[4,4,4,4,1,1,4,5,1,4,4,4,4,1,4,4,2,4,4,1,1,1,1,1,5,1,1,0,1,1,0,0,0,0,0,0,0,0,0,0,0,0,0,0,0,0,0,0,0,0,0,0,0,0,0,0,0,0,0,0,0],"split_type":[0,0,0,0,0,0,0,0,0,0,0,0,0,0,0,0,0,0,0,0,0,0,0,0,0,0,0,0,0,0,0,0,0,0,0,0,0,0,0,0,0,0,0,0,0,0,0,0,0,0,0,0,0,0,0,0,0,0,0,0,0],"sum_hessian":[1.682E3,1.208E3,4.74E2,6.98E2,5.1E2,3.08E2,1.66E2,4.57E2,2.41E2,1.73E2,3.37E2,8.5E1,2.23E2,1.16E2,5E1,4.42E2,1.5E1,9E1,1.51E2,1.31E2,4.2E1,1.49E2,1.88E2,5.6E1,2.9E1,1.42E2,8.1E1,2.1E1,9.5E1,3.4E1,1.6E1,3.56E2,8.6E1,1.2E1,3E0,3.6E1,5.4E1,1.02E2,4.9E1,2.1E1,1.1E2,1.7E1,2.5E1,1.15E2,3.4E1,6.8E1,1.2E2,2.7E1,2.9E1,2.2E1,7E0,9.2E1,5E1,6.5E1,1.6E1,7.7E1,1.8E1,2.1E1,1.3E1,7E0,9E0],"tree_param":{"num_deleted":"0","num_feature":"12","num_nodes":"61","size_leaf_vector":"1"}},{"base_weights":[-2.7068006E-2,-1.4711069E0,3.1720855E0,-2.4104228E0,-1.7893648E-1,2.2720873E0,5.9105797E0,-2.7690923E0,-1.7772821E0,5.282806E-1,-7.806007E-1,1.682311E0,3.3618712E0,5.3405848E0,9.097182E-1,-2.824459E-1,-1.8851763E0,-7.6931965E-1,-2.080408E0,-1.2779467E-1,1.6026602E0,-1.4220375E0,-1.4294043E-1,2.9421086E0,1.0089128E0,5.1074347E0,2.7812479E0,6.429997E0,4.307418E0,-1.387022E-1,-2.643152E-1,-1.17865376E-1,3.7884813E-2,-2.513155E-1,-1.7546384E-1,5.0583935E-1,-2.7828341E-2,3.5749745E-1,1.3220575E-1,-1.8522613E-1,-1.0086153E-1,3.7722692E-2,-8.2207456E-2,4.6252272E-1,2.4191876E-1,3.493606E-2,1.4075984E-1,6.285665E-1,4.3218708E-1,3.0409023E-1,8.76287E-2,5.358872E-1,8.3200276E-1,3.1479523E-1,5.160679E-1],"categories":[],"categories_nodes":[],"categories_segments":[],"categories_sizes":[],"default_left":[0,0,0,0,0,0,0,0,0,0,0,0,0,0,0,0,0,0,0,0,0,0,0,0,0,0,0,0,0,0,0,0,0,0,0,0,0,0,0,0,0,0,0,0,0,0,0,0,0,0,0,0,0,0,0],"id":8,"left_children":[1,3,5,7,9,11,13,15,17,19,21,23,25,27,-1,-1,29,31,33,35,37,39,41,43,45,47,49,51,53,-1,-1,-1,-1,-1,-1,-1,-1,-1,-1,-1,-1,-1,-1,-1,-1,-1,-1,-1,-1,-1,-1,-1,-1,-1,-1],"loss_changes":[7.724189E3,1.3978157E3,1.2681831E3,1.4654663E2,2.072089E2,2.4693665E2,1.839082E2,1.5425537E1,7.295111E1,1.5809656E2,1.0736862E2,2.1505646E2,1.24646484E2,9.723877E1,0E0,0E0,6.906372E0,2.7705608E1,2.195288E1,1.10672485E2,4.231578E1,2.1431976E1,4.7294136E1,6.7143005E1,4.3947464E1,3.3781128E0,4.9271667E1,6.068579E1,4.3114136E1,0E0,0E0,0E0,0E0,0E0,0E0,0E0,0E0,0E0,0E0,0E0,0E0,0E0,0E0,0E0,0E0,0E0,0E0,0E0,0E0,0E0,0E0,0E0,0E0,0E0,0E0],"parents":[2147483647,0,0,1,1,2,2,3,3,4,4,5,5,6,6,7,7,8,8,9,9,10,10,11,11,12,12,13,13,16,16,17,17,18,18,19,19,20,20,21,21,22,22,23,23,24,24,25,25,26,26,27,27,28,28],"right_children":[2,4,6,8,10,12,14,16,18,20,22,24,26,28,-1,-1,30,32,34,36,38,40,42,44,46,48,50,52,54,-1,-1,-1,-1,-1,-1,-1,-1,-1,-1,-1,-1,-1,-1,-1,-1,-1,-1,-1,-1,-1,-1,-1,-1,-1,-1],"split_conditions":[2.16E2,6E1,6.12E2,8E0,2E1,3.99E2,1.292E3,6E0,8E0,1.15E2,1.4E2,2.7E1,3.1E1,4.6E1,9.097182E-1,-2.824459E-1,6E0,3E1,3E1,7E0,1.3E1,1E2,2.8E1,2E1,2.8E2,2.6E1,4.4E1,8.32E2,8.82E2,-1.387022E-1,-2.643152E-1,-1.17865376E-1,3.7884813E-2,-2.513155E-1,-1.7546384E-1,5.0583935E-1,-2.7828341E-2,3.5749745E-1,1.3220575E-1,-1.8522613E-1,-1.0086153E-1,3.7722692E-2,-8.2207456E-2,4.6252272E-1,2.4191876E-1,3.493606E-2,1.4075984E-1,6.285665E-1,4.3218708E-1,3.0409023E-1,8.76287E-2,5.358872E-1,8.3200276E-1,3.1479523E-1,5.160679E-1],"split_indices":[4,4,4,4,1,4,4,5,1,4,4,1,1,1,0,0,2,4,4,1,1,4,1,1,4,1,1,4,4,0,0,0,0,0,0,0,0,0,0,0,0,0,0,0,0,0,0,0,0,0,0,0,0,0,0],"split_type":[0,0,0,0,0,0,0,0,0,0,0,0,0,0,0,0,0,0,0,0,0,0,0,0,0,0,0,0,0,0,0,0,0,0,0,0,0,0,0,0,0,0,0,0,0,0,0,0,0,0,0,0,0,0,0],"sum_hessian":[1.67E3,1.151E3,5.19E2,6.66E2,4.85E2,3.92E2,1.27E2,4.23E2,2.43E2,2.23E2,2.62E2,2.56E2,1.36E2,1.1E2,1.7E1,3.96E2,2.7E1,5.7E1,1.86E2,1.39E2,8.4E1,1.3E2,1.32E2,8.8E1,1.68E2,3.2E1,1.04E2,5.1E1,5.9E1,1.8E1,9E0,4.2E1,1.5E1,7.7E1,1.09E2,3E0,1.36E2,9E0,7.5E1,6.2E1,6.8E1,7.5E1,5.7E1,1.9E1,6.9E1,6.4E1,1.04E2,1E1,2.2E1,9.1E1,1.3E1,3.5E1,1.6E1,2.7E1,3.2E1],"tree_param":{"num_deleted":"0","num_feature":"12","num_nodes":"55","size_leaf_vector":"1"}},{"base_weights":[3.0932497E-2,-1.1973957E0,3.219178E0,-2.0862823E0,8.39561E-2,2.4156609E0,5.8156815E0,-2.4430256E0,-1.4065067E0,-7.7272938E-3,4.485532E0,1.5681828E0,3.0561407E0,5.1954713E0,9.948337E0,-2.5456598E0,-2.0368845E0,-7.6035315E-1,-1.8248618E0,-4.2966038E-1,4.702488E-1,5.263253E0,9.164312E-2,2.2972832E0,4.785731E-1,4.7995887E0,2.4740021E0,6.2416687E0,4.1901946E0,6.451954E-1,1.2023529E0,-2.593757E-1,-1.680069E-1,-1.3003239E-1,-2.2090755E-1,6.3472964E-2,-9.440387E-2,-1.497995E-1,-2.1873815E-1,3.17764E-2,-9.431466E-2,1.5928142E-1,-3.3253261E-3,3.1475067E-1,6.592123E-1,2.9239574E-1,1.687672E-1,9.333721E-2,-2.045397E-2,4.0956312E-1,6.628822E-1,1.7616692E-1,3.2010332E-1,5.109461E-1,7.522087E-1,2.6108012E-1,4.7033715E-1],"categories":[],"categories_nodes":[],"categories_segments":[],"categories_sizes":[],"default_left":[0,0,0,0,0,0,0,0,0,0,0,0,0,0,0,0,0,0,0,0,0,0,0,0,0,0,0,0,0,0,0,0,0,0,0,0,0,0,0,0,0,0,0,0,0,0,0,0,0,0,0,0,0,0,0,0,0],"id":9,"left_children":[1,3,5,7,9,11,13,15,17,19,21,23,25,27,29,31,33,35,37,39,41,43,-1,45,47,49,51,53,55,-1,-1,-1,-1,-1,-1,-1,-1,-1,-1,-1,-1,-1,-1,-1,-1,-1,-1,-1,-1,-1,-1,-1,-1,-1,-1,-1,-1],"loss_changes":[6.477353E3,1.360113E3,9.4566504E2,1.6753027E2,1.9777486E2,1.8681348E2,2.2513037E2,1.4031006E1,6.484122E1,9.720719E1,2.2934235E1,1.212435E2,1.9111157E2,7.4811035E1,1.6748413E1,1.0796631E1,9.556763E0,2.5712345E1,1.4260681E1,9.855046E1,1.2779133E2,1.7436676E0,0E0,3.0211884E1,1.9763687E1,3.5948242E1,7.3079834E1,2.6802734E1,2.9866821E1,0E0,0E0,0E0,0E0,0E0,0E0,0E0,0E0,0E0,0E0,0E0,0E0,0E0,0E0,0E0,0E0,0E0,0E0,0E0,0E0,0E0,0E0,0E0,0E0,0E0,0E0,0E0,0E0],"parents":[2147483647,0,0,1,1,2,2,3,3,4,4,5,5,6,6,7,7,8,8,9,9,10,10,11,11,12,12,13,13,14,14,15,15,16,16,17,17,18,18,19,19,20,20,21,21,23,23,24,24,25,25,26,26,27,27,28,28],"right_children":[2,4,6,8,10,12,14,16,18,20,22,24,26,28,30,32,34,36,38,40,42,44,-1,46,48,50,52,54,56,-1,-1,-1,-1,-1,-1,-1,-1,-1,-1,-1,-1,-1,-1,-1,-1,-1,-1,-1,-1,-1,-1,-1,-1,-1,-1,-1,-1],"split_conditions":[2.52E2,7E1,6.97E2,1.6E1,9.2E1,3.6E2,1.404E3,1E0,1.2E1,1.43E2,1.5E1,3.1E1,3E1,4.8E1,5.4E1,1E0,2E0,6E0,1.9E1,1.8E1,2.2E1,1.52E2,9.164312E-2,2.6E1,3.6E1,1.1E2,4.95E2,8.64E2,8.82E2,6.451954E-1,1.2023529E0,-2.593757E-1,-1.680069E-1,-1.3003239E-1,-2.2090755E-1,6.3472964E-2,-9.440387E-2,-1.497995E-1,-2.1873815E-1,3.17764E-2,-9.431466E-2,1.5928142E-1,-3.3253261E-3,3.1475067E-1,6.592123E-1,2.9239574E-1,1.687672E-1,9.333721E-2,-2.045397E-2,4.0956312E-1,6.628822E-1,1.7616692E-1,3.2010332E-1,5.109461E-1,7.522087E-1,2.6108012E-1,4.7033715E-1],"split_indices":[4,4,4,4,5,4,4,4,1,4,1,1,1,1,0,5,1,1,1,1,1,5,0,1,1,5,4,4,4,0,0,0,0,0,0,0,0,0,0,0,0,0,0,0,0,0,0,0,0,0,0,0,0,0,0,0,0],"split_type":[0,0,0,0,0,0,0,0,0,0,0,0,0,0,0,0,0,0,0,0,0,0,0,0,0,0,0,0,0,0,0,0,0,0,0,0,0,0,0,0,0,0,0,0,0,0,0,0,0,0,0,0,0,0,0,0,0],"sum_hessian":[1.652E3,1.193E3,4.59E2,7.04E2,4.89E2,3.52E2,1.07E2,4.6E2,2.44E2,4.8E2,9E0,1.53E2,1.99E2,9.5E1,1.2E1,3.63E2,9.7E1,9.7E1,1.47E2,2.55E2,2.25E2,7E0,2E0,9.1E1,6.2E1,4.8E1,1.51E2,4.4E1,5.1E1,6E0,6E0,3.42E2,2.1E1,2E1,7.7E1,1.1E1,8.6E1,8E1,6.7E1,1.04E2,1.51E2,6.9E1,1.56E2,4E0,3E0,4.3E1,4.8E1,3.7E1,2.5E1,3.7E1,1.1E1,7.8E1,7.3E1,2.6E1,1.8E1,1.4E1,3.7E1],"tree_param":{"num_deleted":"0","num_feature":"12","num_nodes":"57","size_leaf_vector":"1"}},{"base_weights":[5.1284146E-2,-1.0170954E0,3.134274E0,-1.8333759E0,1.8333447E-1,2.5249498E0,5.80185E0,-2.1992347E0,-1.1924307E0,2.231513E0,1.0786407E-2,1.8590676E0,3.3946016E0,5.2320437E0,8.292248E0,-2.2376497E0,-9.741542E-1,-5.8004744E-2,-1.38947E0,1.2145689E0,4.4184238E-1,-5.5153805E-1,4.9017543E-1,3.0236697E0,1.0959566E0,4.65967E0,2.5555305E0,5.7173514E0,2.7763524E0,4.705394E-1,9.3635845E-1,-2.2920957E-1,-1.8573199E-1,-1.17469504E-1,-7.885802E-3,-6.418509E-2,5.8712628E-2,-1.20412245E-1,-1.9062547E-1,1.7474352E-1,6.362557E-2,-2.6977077E-2,-1.4703391E-1,1.344031E-1,-3.855151E-4,4.6516952E-1,2.601454E-1,1.4950217E-1,4.1885085E-2,5.90986E-1,4.0129295E-1,2.1075419E-1,3.3835226E-1,6.568986E-1,4.8999587E-1,7.861757E-2,3.0667323E-1],"categories":[],"categories_nodes":[],"categories_segments":[],"categories_sizes":[],"default_left":[0,0,0,0,0,0,0,0,0,0,0,0,0,0,0,0,0,0,0,0,0,0,0,0,0,0,0,0,0,0,0,0,0,0,0,0,0,0,0,0,0,0,0,0,0,0,0,0,0,0,0,0,0,0,0,0,0],"id":10,"left_children":[1,3,5,7,9,11,13,15,17,19,21,23,25,27,29,31,33,35,37,39,-1,41,43,45,47,49,51,53,55,-1,-1,-1,-1,-1,-1,-1,-1,-1,-1,-1,-1,-1,-1,-1,-1,-1,-1,-1,-1,-1,-1,-1,-1,-1,-1,-1,-1],"loss_changes":[5.490664E3,1.213437E3,6.826553E2,1.7020068E2,1.7738737E2,1.9694824E2,6.8718994E1,1.984497E1,6.0271545E1,8.136821E1,1.2535183E2,1.7531909E2,1.4837585E2,6.3974976E1,5.896179E0,5.123291E0,2.7800608E0,1.5819795E1,1.9735138E1,7.516762E0,0E0,5.5005394E1,1.05884705E2,4.220172E1,3.260956E1,2.3988525E1,2.7365662E1,6.098877E0,5.101799E0,0E0,0E0,0E0,0E0,0E0,0E0,0E0,0E0,0E0,0E0,0E0,0E0,0E0,0E0,0E0,0E0,0E0,0E0,0E0,0E0,0E0,0E0,0E0,0E0,0E0,0E0,0E0,0E0],"parents":[2147483647,0,0,1,1,2,2,3,3,4,4,5,5,6,6,7,7,8,8,9,9,10,10,11,11,12,12,13,13,14,14,15,15,16,16,17,17,18,18,19,19,21,21,22,22,23,23,24,24,25,25,26,26,27,27,28,28],"right_children":[2,4,6,8,10,12,14,16,18,20,22,24,26,28,30,32,34,36,38,40,-1,42,44,46,48,50,52,54,56,-1,-1,-1,-1,-1,-1,-1,-1,-1,-1,-1,-1,-1,-1,-1,-1,-1,-1,-1,-1,-1,-1,-1,-1,-1,-1,-1,-1],"split_conditions":[2.7E2,7.8E1,8.32E2,1.7E1,1.3E1,4.56E2,1.404E3,1.1E1,9E0,1.12E2,1.5E2,2.9E1,3.6E1,5.7E1,4.8E1,6E0,2E1,3E1,2E1,1.1E1,4.4184238E-1,2.6E1,2.4E1,2.1E1,3.6E1,2.9E1,6.97E2,4.8E1,2.4E1,4.705394E-1,9.3635845E-1,-2.2920957E-1,-1.8573199E-1,-1.17469504E-1,-7.885802E-3,-6.418509E-2,5.8712628E-2,-1.20412245E-1,-1.9062547E-1,1.7474352E-1,6.362557E-2,-2.6977077E-2,-1.4703391E-1,1.344031E-1,-3.855151E-4,4.6516952E-1,2.601454E-1,1.4950217E-1,4.1885085E-2,5.90986E-1,4.0129295E-1,2.1075419E-1,3.3835226E-1,6.568986E-1,4.8999587E-1,7.861757E-2,3.0667323E-1],"split_indices":[4,4,4,4,1,4,4,5,1,4,4,1,1,1,0,4,5,4,1,1,0,1,1,1,1,1,4,1,0,0,0,0,0,0,0,0,0,0,0,0,0,0,0,0,0,0,0,0,0,0,0,0,0,0,0,0,0],"split_type":[0,0,0,0,0,0,0,0,0,0,0,0,0,0,0,0,0,0,0,0,0,0,0,0,0,0,0,0,0,0,0,0,0,0,0,0,0,0,0,0,0,0,0,0,0,0,0,0,0,0,0,0,0,0,0,0,0],"sum_hessian":[1.665E3,1.237E3,4.28E2,7.36E2,5.01E2,3.5E2,7.8E1,4.67E2,2.69E2,3.8E1,4.63E2,2E2,1.5E2,6.6E1,1.2E1,4.52E2,1.5E1,4E1,2.29E2,2.7E1,1.1E1,2.13E2,2.5E2,7.8E1,1.22E2,5.8E1,9.2E1,5.4E1,1.2E1,4E0,8E0,3.91E2,6.1E1,1.2E1,3E0,2.1E1,1.9E1,1.71E2,5.8E1,1.3E1,1.4E1,1.64E2,4.9E1,9.1E1,1.59E2,1.4E1,6.4E1,7.6E1,4.6E1,1.7E1,4.1E1,6.2E1,3E1,2.3E1,3.1E1,2E0,1E1],"tree_param":{"num_deleted":"0","num_feature":"12","num_nodes":"57","size_leaf_vector":"1"}},{"base_weights":[2.9342279E-2,-9.724983E-1,2.530732E0,-1.7592849E0,-5.5433653E-2,1.6713629E0,4.0042067E0,-1.9592451E0,-1.180001E0,-1.1329172E-1,4.457149E0,2.1844573E0,6.538547E-1,3.2897956E0,5.1918597E0,-2.0374064E0,-1.6747764E0,-2.1616332E-1,-1.5784068E0,-6.32279E-1,2.5359708E-1,5.358746E-1,1.4687715E-1,1.6022352E0,2.9289525E0,6.829201E-2,1.1069932E0,3.8407085E0,1.3198261E0,6.2494105E-1,4.569123E0,-2.0816772E-1,-1.2828355E-1,-1.13836385E-1,-1.8572778E-1,6.9788024E-2,-4.9186487E-2,-1.3661958E-1,-2.129896E-1,3.4797885E-2,-9.056158E-2,9.579315E-2,-2.7220408E-2,2.53628E-1,1.2273344E-1,4.3245694E-1,2.4478047E-1,3.239123E-2,-6.8295814E-2,1.2971985E-1,-7.2702407E-3,4.982345E-1,3.2144684E-1,1.7231306E-1,3.6657006E-2,3.521442E-1,5.8868045E-1],"categories":[],"categories_nodes":[],"categories_segments":[],"categories_sizes":[],"default_left":[0,0,0,0,0,0,0,0,0,0,0,0,0,0,0,0,0,0,0,0,0,0,0,0,0,0,0,0,0,0,0,0,0,0,0,0,0,0,0,0,0,0,0,0,0,0,0,0,0,0,0,0,0,0,0,0,0],"id":11,"left_children":[1,3,5,7,9,11,13,15,17,19,21,23,25,27,29,31,33,35,37,39,41,-1,-1,43,45,47,49,51,53,-1,55,-1,-1,-1,-1,-1,-1,-1,-1,-1,-1,-1,-1,-1,-1,-1,-1,-1,-1,-1,-1,-1,-1,-1,-1,-1,-1],"loss_changes":[4.1799526E3,8.5924963E2,5.9731274E2,7.193738E1,1.4436519E2,1.5676123E2,1.3140259E2,7.149292E0,6.3786545E1,1.03934135E2,1.098938E1,8.243286E1,2.7254524E1,1.16482544E2,1.3594482E1,9.622681E0,8.458496E0,1.2943421E1,1.0899933E1,6.0869698E1,1.1876949E2,0E0,0E0,3.7157135E1,4.7834656E1,9.054817E0,1.3108597E1,4.6184082E1,9.364117E0,0E0,4.001239E1,0E0,0E0,0E0,0E0,0E0,0E0,0E0,0E0,0E0,0E0,0E0,0E0,0E0,0E0,0E0,0E0,0E0,0E0,0E0,0E0,0E0,0E0,0E0,0E0,0E0,0E0],"parents":[2147483647,0,0,1,1,2,2,3,3,4,4,5,5,6,6,7,7,8,8,9,9,10,10,11,11,12,12,13,13,14,14,15,15,16,16,17,17,18,18,19,19,20,20,23,23,24,24,25,25,26,26,27,27,28,28,30,30],"right_children":[2,4,6,8,10,12,14,16,18,20,22,24,26,28,30,32,34,36,38,40,42,-1,-1,44,46,48,50,52,54,-1,56,-1,-1,-1,-1,-1,-1,-1,-1,-1,-1,-1,-1,-1,-1,-1,-1,-1,-1,-1,-1,-1,-1,-1,-1,-1,-1],"split_conditions":[2.4E2,5.5E1,5.2E2,1.8E1,1.28E2,3.4E1,8.64E2,1E0,1E1,1.08E2,1.3E1,3.36E2,3.6E2,4.7E1,4.8E1,1E0,3E0,6E0,2E1,1.4E1,2.2E1,5.358746E-1,1.4687715E-1,2.3E1,2.6E1,4E1,4.6E1,3.5E1,5.3E1,6.2494105E-1,1.224E3,-2.0816772E-1,-1.2828355E-1,-1.13836385E-1,-1.8572778E-1,6.9788024E-2,-4.9186487E-2,-1.3661958E-1,-2.129896E-1,3.4797885E-2,-9.056158E-2,9.579315E-2,-2.7220408E-2,2.53628E-1,1.2273344E-1,4.3245694E-1,2.4478047E-1,3.239123E-2,-6.8295814E-2,1.2971985E-1,-7.2702407E-3,4.982345E-1,3.2144684E-1,1.7231306E-1,3.6657006E-2,3.521442E-1,5.8868045E-1],"split_indices":[4,4,4,4,5,1,4,4,1,4,1,4,4,1,1,5,1,1,1,1,1,0,0,1,1,1,1,1,1,0,4,0,0,0,0,0,0,0,0,0,0,0,0,0,0,0,0,0,0,0,0,0,0,0,0,0,0],"split_type":[0,0,0,0,0,0,0,0,0,0,0,0,0,0,0,0,0,0,0,0,0,0,0,0,0,0,0,0,0,0,0,0,0,0,0,0,0,0,0,0,0,0,0,0,0,0,0,0,0,0,0,0,0,0,0,0,0],"sum_hessian":[1.666E3,1.19E3,4.76E2,6.4E2,5.5E2,3.02E2,1.74E2,4.74E2,1.66E2,5.44E2,6E0,2E2,1.02E2,1.11E2,6.3E1,3.67E2,1.07E2,4.9E1,1.17E2,2.25E2,3.19E2,4E0,2E0,1.14E2,8.6E1,4.5E1,5.7E1,8.6E1,2.5E1,2E1,4.3E1,3.45E2,2.2E1,2.9E1,7.8E1,1.1E1,3.8E1,8.7E1,3E1,4.9E1,1.76E2,1.36E2,1.83E2,3.1E1,8.3E1,2E1,6.6E1,3.4E1,1.1E1,4.9E1,8E0,2.8E1,5.8E1,1.7E1,8E0,2.6E1,1.7E1],"tree_param":{"num_deleted":"0","num_feature":"12","num_nodes":"57","size_leaf_vector":"1"}},{"base_weights":[-8.261672E-4,-9.442972E-1,2.13031E0,-1.5923415E0,-1.2827227E-1,1.3476964E0,3.5950708E0,-1.8203979E0,-1.220266E0,3.8091853E-1,-5.700939E-1,2.1609073E0,9.387048E-1,2.962946E0,4.9080024E0,-1.8588482E0,-1.2260628E0,4.1992316E-1,-1.2840544E0,-1.696038E-1,1.0230682E0,-1.079284E0,-1.7220432E-1,1.7111262E0,3.1292021E0,2.6337248E-1,1.334373E0,3.6334078E0,2.0215256E0,4.0854793E0,5.5329213E0,-1.7530747E-1,-1.9881889E-1,-1.285797E-1,1.6351318E-2,-3.4864202E-2,1.6599314E-1,-1.0107004E-1,-1.5774928E-1,2.577375E-1,-3.725228E-2,1.9431739E-1,7.1514055E-2,-7.460784E-2,-1.5154624E-1,1.0144179E-2,-9.108579E-2,4.113801E-1,1.416302E-1,3.603628E-1,2.2880207E-1,7.6660275E-2,-6.1050067E-3,1.8033284E-1,7.895068E-2,2.9656976E-1,4.5869574E-1,1.0927923E-1,2.5083828E-1,4.196708E-1,5.411544E-2,5.7935214E-1,2.4557912E-1],"categories":[],"categories_nodes":[],"categories_segments":[],"categories_sizes":[],"default_left":[0,0,0,0,0,0,0,0,0,0,0,0,0,0,0,0,0,0,0,0,0,0,0,0,0,0,0,0,0,0,0,0,0,0,0,0,0,0,0,0,0,0,0,0,0,0,0,0,0,0,0,0,0,0,0,0,0,0,0,0,0,0,0],"id":12,"left_children":[1,3,5,7,9,11,13,15,17,19,21,23,25,27,29,31,33,35,37,39,41,43,45,47,49,51,53,55,57,59,61,-1,-1,-1,-1,-1,-1,-1,-1,-1,-1,-1,-1,-1,-1,-1,-1,-1,-1,-1,-1,-1,-1,-1,-1,-1,-1,-1,-1,-1,-1,-1,-1],"loss_changes":[3.3417268E3,6.089967E2,5.797893E2,5.2255005E1,1.1517761E2,1.0905878E2,1.3235669E2,6.770508E0,2.6381561E1,8.431073E1,5.5326927E1,4.2988342E1,5.9503036E1,6.965967E1,6.1799316E0,1.576416E0,2.4513893E0,1.0108994E1,1.7496246E1,7.286656E1,2.977623E1,1.63098E1,3.14225E1,4.942624E1,5.323517E0,1.3760577E1,3.460431E1,3.0965149E1,2.1223358E1,8.767395E0,9.027466E0,0E0,0E0,0E0,0E0,0E0,0E0,0E0,0E0,0E0,0E0,0E0,0E0,0E0,0E0,0E0,0E0,0E0,0E0,0E0,0E0,0E0,0E0,0E0,0E0,0E0,0E0,0E0,0E0,0E0,0E0,0E0,0E0],"parents":[2147483647,0,0,1,1,2,2,3,3,4,4,5,5,6,6,7,7,8,8,9,9,10,10,11,11,12,12,13,13,14,14,15,15,16,16,17,17,18,18,19,19,20,20,21,21,22,22,23,23,24,24,25,25,26,26,27,27,28,28,29,29,30,30],"right_children":[2,4,6,8,10,12,14,16,18,20,22,24,26,28,30,32,34,36,38,40,42,44,46,48,50,52,54,56,58,60,62,-1,-1,-1,-1,-1,-1,-1,-1,-1,-1,-1,-1,-1,-1,-1,-1,-1,-1,-1,-1,-1,-1,-1,-1,-1,-1,-1,-1,-1,-1,-1,-1],"split_conditions":[2.17E2,5.5E1,5.2E2,4E0,2E1,2.8E1,9.31E2,4E0,3E0,9.9E1,1.25E2,3.3E2,3.19E2,4.2E1,1.197E3,1E0,2E1,8E0,1.2E1,9E0,1.4E1,2.5E1,3E1,1.7E1,2.6E1,3.1E1,3.6E1,6.44E2,7.28E2,6.1E1,5.74E2,-1.7530747E-1,-1.9881889E-1,-1.285797E-1,1.6351318E-2,-3.4864202E-2,1.6599314E-1,-1.0107004E-1,-1.5774928E-1,2.577375E-1,-3.725228E-2,1.9431739E-1,7.1514055E-2,-7.460784E-2,-1.5154624E-1,1.0144179E-2,-9.108579E-2,4.113801E-1,1.416302E-1,3.603628E-1,2.2880207E-1,7.6660275E-2,-6.1050067E-3,1.8033284E-1,7.895068E-2,2.9656976E-1,4.5869574E-1,1.0927923E-1,2.5083828E-1,4.196708E-1,5.411544E-2,5.7935214E-1,2.4557912E-1],"split_indices":[4,4,4,4,1,1,4,5,1,4,4,4,4,1,4,1,5,4,1,1,1,1,1,1,1,1,1,4,4,1,3,0,0,0,0,0,0,0,0,0,0,0,0,0,0,0,0,0,0,0,0,0,0,0,0,0,0,0,0,0,0,0,0],"split_type":[0,0,0,0,0,0,0,0,0,0,0,0,0,0,0,0,0,0,0,0,0,0,0,0,0,0,0,0,0,0,0,0,0,0,0,0,0,0,0,0,0,0,0,0,0,0,0,0,0,0,0,0,0,0,0,0,0,0,0,0,0,0,0],"sum_hessian":[1.66E3,1.151E3,5.09E2,6.41E2,5.1E2,3.33E2,1.76E2,3.95E2,2.46E2,2.37E2,2.73E2,1.1E2,2.23E2,1.21E2,5.5E1,3.69E2,2.6E1,9E0,2.37E2,1.28E2,1.09E2,1.19E2,1.54E2,7.7E1,3.3E1,8.3E1,1.4E2,6.9E1,5.2E1,2.7E1,2.8E1,2.11E2,1.58E2,2.5E1,1E0,6E0,3E0,1.25E2,1.12E2,8E0,1.2E2,2.6E1,8.3E1,6.9E1,5E1,1.13E2,4.1E1,7E0,7E1,1.9E1,1.4E1,3.2E1,5.1E1,7.4E1,6.6E1,4.3E1,2.6E1,1.9E1,3.3E1,2.6E1,1E0,2.5E1,3E0],"tree_param":{"num_deleted":"0","num_feature":"12","num_nodes":"63","size_leaf_vector":"1"}},{"base_weights":[3.914378E-2,-7.465302E-1,2.2931252E0,-1.3653283E0,1.456588E-1,1.8653536E0,4.535141E0,-1.6300969E0,-9.223107E-1,1.2219856E0,-7.4496314E-2,1.6849517E0,3.6401803E0,3.9505107E0,8.49913E0,-1.6642257E0,-1.1041132E0,-5.036766E-1,-1.2417442E0,9.0812385E-1,3.107944E0,-5.695581E-1,3.7448597E-1,1.3475499E0,2.381643E0,4.9668208E-1,2.7510953E0,4.701938E0,2.4719195E0,3.5185763E-1,9.572887E-1,-1.575248E-1,-1.7923205E-1,-5.0995227E-2,-1.8875705E-1,1.2568146E-1,-5.8965325E-2,-1.0928338E-1,-1.7681701E-1,2.6190994E-2,1.4250134E-1,4.4564685E-1,1.8766232E-1,-3.5170197E-2,-1.1954152E-1,6.764474E-2,-3.9098706E-2,2.0805052E-1,8.632799E-2,3.716426E-1,1.7447862E-1,1.0076761E-2,2.872503E-1,3.9344248E-1,5.6073064E-1,2.8413644E-1,1.2215646E-1],"categories":[],"categories_nodes":[],"categories_segments":[],"categories_sizes":[],"default_left":[0,0,0,0,0,0,0,0,0,0,0,0,0,0,0,0,0,0,0,0,0,0,0,0,0,0,0,0,0,0,0,0,0,0,0,0,0,0,0,0,0,0,0,0,0,0,0,0,0,0,0,0,0,0,0,0,0],"id":13,"left_children":[1,3,5,7,9,11,13,15,17,19,21,23,25,27,29,31,33,35,37,39,41,43,45,47,49,-1,51,53,55,-1,-1,-1,-1,-1,-1,-1,-1,-1,-1,-1,-1,-1,-1,-1,-1,-1,-1,-1,-1,-1,-1,-1,-1,-1,-1,-1,-1],"loss_changes":[2.9803567E3,6.8920074E2,4.0873608E2,8.494458E1,1.2141397E2,1.1137329E2,1.2632947E2,6.420044E0,3.6550323E1,4.867552E1,9.4902E1,7.553735E1,2.5259155E1,5.7262573E1,9.10022E0,2.0775146E0,1.3467922E1,1.9207144E1,1.0374954E1,2.5012383E1,1.1562485E1,2.7257965E1,5.204059E1,7.913211E1,8.5322754E1,0E0,6.7894897E0,5.7337036E0,7.153656E0,0E0,0E0,0E0,0E0,0E0,0E0,0E0,0E0,0E0,0E0,0E0,0E0,0E0,0E0,0E0,0E0,0E0,0E0,0E0,0E0,0E0,0E0,0E0,0E0,0E0,0E0,0E0,0E0],"parents":[2147483647,0,0,1,1,2,2,3,3,4,4,5,5,6,6,7,7,8,8,9,9,10,10,11,11,12,12,13,13,14,14,15,15,16,16,17,17,18,18,19,19,20,20,21,21,22,22,23,23,24,24,26,26,27,27,28,28],"right_children":[2,4,6,8,10,12,14,16,18,20,22,24,26,28,30,32,34,36,38,40,42,44,46,48,50,-1,52,54,56,-1,-1,-1,-1,-1,-1,-1,-1,-1,-1,-1,-1,-1,-1,-1,-1,-1,-1,-1,-1,-1,-1,-1,-1,-1,-1,-1,-1],"split_conditions":[2.7E2,7.8E1,8.64E2,1.5E1,1.6E1,1.12E2,1.608E3,6E0,1.3E1,6.4E1,1.6E2,4.95E2,2.3E2,5.4E1,5.4E1,1E0,6E0,5E0,2.4E1,9.9E1,1.1E1,2.7E1,3E1,3E1,3.6E1,4.9668208E-1,3.19E2,1.04E3,6.1E1,3.5185763E-1,9.572887E-1,-1.575248E-1,-1.7923205E-1,-5.0995227E-2,-1.8875705E-1,1.2568146E-1,-5.8965325E-2,-1.0928338E-1,-1.7681701E-1,2.6190994E-2,1.4250134E-1,4.4564685E-1,1.8766232E-1,-3.5170197E-2,-1.1954152E-1,6.764474E-2,-3.9098706E-2,2.0805052E-1,8.632799E-2,3.716426E-1,1.7447862E-1,1.0076761E-2,2.872503E-1,3.9344248E-1,5.6073064E-1,2.8413644E-1,1.2215646E-1],"split_indices":[4,4,4,4,1,5,4,5,1,5,4,4,3,1,0,2,2,1,1,4,1,1,1,1,1,0,4,4,1,0,0,0,0,0,0,0,0,0,0,0,0,0,0,0,0,0,0,0,0,0,0,0,0,0,0,0,0],"split_type":[0,0,0,0,0,0,0,0,0,0,0,0,0,0,0,0,0,0,0,0,0,0,0,0,0,0,0,0,0,0,0,0,0,0,0,0,0,0,0,0,0,0,0,0,0,0,0,0,0,0,0,0,0,0,0,0,0],"sum_hessian":[1.681E3,1.247E3,4.34E2,7.36E2,5.11E2,3.66E2,6.8E1,4.59E2,2.77E2,8.6E1,4.25E2,3.34E2,3.2E1,6.1E1,7E0,4.29E2,3E1,1.21E2,1.56E2,7.5E1,1.1E1,2.02E2,2.23E2,2.27E2,1.07E2,1.1E1,2.1E1,3.9E1,2.2E1,2E0,5E0,2.61E2,1.68E2,1.8E1,1.2E1,5E0,1.16E2,1.24E2,3.2E1,3.4E1,4.1E1,4E0,7E0,1.51E2,5.1E1,1.6E2,6.3E1,8.9E1,1.38E2,3.3E1,7.4E1,1E0,2E1,2.4E1,1.5E1,1.6E1,6E0],"tree_param":{"num_deleted":"0","num_feature":"12","num_nodes":"57","size_leaf_vector":"1"}},{"base_weights":[1.3725768E-2,-7.170958E-1,1.9966577E0,-1.2126004E0,6.9056556E-2,1.5628822E0,4.0453963E0,-1.4129705E0,-7.1162695E-1,1.172478E0,-1.5516368E-1,1.4251647E0,3.0899463E0,3.3445165E0,6.1958566E0,-1.504033E0,-1.182678E0,1.4944464E-1,-9.265144E-1,8.5984683E-1,3.05536E-1,-5.2200735E-1,2.2571641E-1,1.0735222E0,1.8946968E0,5.092806E-1,2.4856622E0,4.6882316E-1,2.6730025E0,4.3173742E-1,7.5946302E0,-1.5340498E-1,-9.7272776E-2,-8.9892305E-2,-1.5184493E-1,5.7716247E-2,-2.6617436E-2,-8.3494775E-2,-1.4873861E-1,2.588213E-1,5.9508648E-2,-3.304867E-2,-1.0788232E-1,6.265008E-2,-2.5415843E-2,1.7930834E-1,6.2384337E-2,2.1021123E-1,5.5997964E-2,2.6777947E-1,1.4309435E-1,2.792962E-1,1.2027194E-1,4.192844E-1,9.477491E-1],"categories":[],"categories_nodes":[],"categories_segments":[],"categories_sizes":[],"default_left":[0,0,0,0,0,0,0,0,0,0,0,0,0,0,0,0,0,0,0,0,0,0,0,0,0,0,0,0,0,0,0,0,0,0,0,0,0,0,0,0,0,0,0,0,0,0,0,0,0,0,0,0,0,0,0],"id":14,"left_children":[1,3,5,7,9,11,13,15,17,19,21,23,25,27,29,31,33,35,37,39,-1,41,43,45,47,-1,49,-1,51,-1,53,-1,-1,-1,-1,-1,-1,-1,-1,-1,-1,-1,-1,-1,-1,-1,-1,-1,-1,-1,-1,-1,-1,-1,-1],"loss_changes":[2.4215447E3,4.7571454E2,3.9358923E2,7.41792E1,1.1720657E2,7.403943E1,9.6840454E1,9.419678E0,4.0105682E1,4.4464676E1,5.516886E1,5.476294E1,2.3649902E1,4.251007E1,1.4507507E1,4.552124E0,1.349823E1,7.9754024E0,7.6428986E0,3.0492E1,0E0,2.107845E1,3.747054E1,6.327211E1,3.92417E1,0E0,1.234375E0,0E0,4.224945E0,0E0,1.7908142E1,0E0,0E0,0E0,0E0,0E0,0E0,0E0,0E0,0E0,0E0,0E0,0E0,0E0,0E0,0E0,0E0,0E0,0E0,0E0,0E0,0E0,0E0,0E0,0E0],"parents":[2147483647,0,0,1,1,2,2,3,3,4,4,5,5,6,6,7,7,8,8,9,9,10,10,11,11,12,12,13,13,14,14,15,15,16,16,17,17,18,18,19,19,21,21,22,22,23,23,24,24,26,26,28,28,30,30],"right_children":[2,4,6,8,10,12,14,16,18,20,22,24,26,28,30,32,34,36,38,40,-1,42,44,46,48,-1,50,-1,52,-1,54,-1,-1,-1,-1,-1,-1,-1,-1,-1,-1,-1,-1,-1,-1,-1,-1,-1,-1,-1,-1,-1,-1,-1,-1],"split_conditions":[2.52E2,8E1,8E2,3E1,1.6E1,1.2E2,1.292E3,1E0,1.1E1,1.52E2,1.6E2,4.29E2,1.48E2,4.6E1,5.4E1,1E0,8E0,9E0,2.4E1,1E1,3.05536E-1,2.7E1,2.7E1,2.8E1,4.7E1,5.092806E-1,1.4E1,4.6882316E-1,6.1E1,4.3173742E-1,5.7E1,-1.5340498E-1,-9.7272776E-2,-8.9892305E-2,-1.5184493E-1,5.7716247E-2,-2.6617436E-2,-8.3494775E-2,-1.4873861E-1,2.588213E-1,5.9508648E-2,-3.304867E-2,-1.0788232E-1,6.265008E-2,-2.5415843E-2,1.7930834E-1,6.2384337E-2,2.1021123E-1,5.5997964E-2,2.6777947E-1,1.4309435E-1,2.792962E-1,1.2027194E-1,4.192844E-1,9.477491E-1],"split_indices":[4,4,4,4,1,5,4,4,1,4,4,4,3,1,0,5,1,1,1,1,0,1,1,1,1,0,2,0,1,0,1,0,0,0,0,0,0,0,0,0,0,0,0,0,0,0,0,0,0,0,0,0,0,0,0],"split_type":[0,0,0,0,0,0,0,0,0,0,0,0,0,0,0,0,0,0,0,0,0,0,0,0,0,0,0,0,0,0,0,0,0,0,0,0,0,0,0,0,0,0,0,0,0,0,0,0,0,0,0,0,0,0,0],"sum_hessian":[1.669E3,1.22E3,4.49E2,7.48E2,4.72E2,3.72E2,7.7E1,5.33E2,2.15E2,7.9E1,3.93E2,3.43E2,2.9E1,6E1,1.7E1,3.78E2,1.55E2,4.3E1,1.72E2,6.9E1,1E1,2E2,1.93E2,1.98E2,1.45E2,5E0,2.4E1,1.8E1,4.2E1,9E0,8E0,3.56E2,2.2E1,8.6E1,6.9E1,2.1E1,2.2E1,1.5E2,2.2E1,8E0,6.1E1,1.5E2,5E1,1.05E2,8.8E1,7.5E1,1.23E2,1.25E2,2E1,1.9E1,5E0,3.8E1,4E0,4E0,4E0],"tree_param":{"num_deleted":"0","num_feature":"12","num_nodes":"55","size_leaf_vector":"1"}},{"base_weights":[3.4577206E-2,-5.610134E-1,1.9686553E0,-1.1769372E0,3.784838E-2,1.4958249E0,3.410722E0,-1.3327157E0,-8.7144274E-1,-2.8694862E-1,4.0036333E-1,2.2038991E0,1.0048704E0,3.0662408E0,6.859793E0,-1.3580986E0,-7.281946E-1,2.711914E-1,-1.0352443E0,1.1749396E0,-4.4533727E-1,1.6344469E0,1.3848493E-1,1.7023352E0,3.3101315E0,5.707585E-1,1.5349494E0,3.4297955E0,1.3033416E0,2.8204712E-1,8.7192917E-1,-1.24982275E-1,-1.467753E-1,-4.2661812E-2,-1.4872852E-1,-6.866803E-3,1.3005793E-1,-1.3716184E-1,-8.49357E-2,5.1677406E-2,1.8027069E-1,-2.3574462E-2,-8.808651E-2,1.14968516E-1,2.1924953E-1,2.7499167E-2,-7.033616E-2,3.579683E-1,1.4638935E-1,3.871892E-1,2.6390404E-1,7.032764E-2,-6.922299E-2,1.759191E-1,-3.158396E-3,3.0070043E-1,4.23655E-1,-9.105015E-3,1.7393892E-1],"categories":[],"categories_nodes":[],"categories_segments":[],"categories_sizes":[],"default_left":[0,0,0,0,0,0,0,0,0,0,0,0,0,0,0,0,0,0,0,0,0,0,0,0,0,0,0,0,0,0,0,0,0,0,0,0,0,0,0,0,0,0,0,0,0,0,0,0,0,0,0,0,0,0,0,0,0,0,0],"id":15,"left_children":[1,3,5,7,9,11,13,15,17,19,21,23,25,27,29,31,33,35,37,39,41,43,45,47,49,51,53,55,57,-1,-1,-1,-1,-1,-1,-1,-1,-1,-1,-1,-1,-1,-1,-1,-1,-1,-1,-1,-1,-1,-1,-1,-1,-1,-1,-1,-1,-1,-1],"loss_changes":[1.93748E3,4.7438983E2,2.6491187E2,2.9010376E1,7.7001564E1,1.02075134E2,9.421582E1,5.425049E0,4.0895615E1,8.0406784E1,9.9636215E1,6.2056274E1,4.0314224E1,5.321167E1,3.54964E1,2.9146729E0,3.7150497E0,9.88503E0,1.0715256E1,1.3116348E1,2.827277E1,1.2087448E1,2.9612358E1,3.325659E1,3.7306519E0,1.7223682E1,2.8158142E1,1.2501282E1,1.0494728E1,0E0,0E0,0E0,0E0,0E0,0E0,0E0,0E0,0E0,0E0,0E0,0E0,0E0,0E0,0E0,0E0,0E0,0E0,0E0,0E0,0E0,0E0,0E0,0E0,0E0,0E0,0E0,0E0,0E0,0E0],"parents":[2147483647,0,0,1,1,2,2,3,3,4,4,5,5,6,6,7,7,8,8,9,9,10,10,11,11,12,12,13,13,14,14,15,15,16,16,17,17,18,18,19,19,20,20,21,21,22,22,23,23,24,24,25,25,26,26,27,27,28,28],"right_children":[2,4,6,8,10,12,14,16,18,20,22,24,26,28,30,32,34,36,38,40,42,44,46,48,50,52,54,56,58,-1,-1,-1,-1,-1,-1,-1,-1,-1,-1,-1,-1,-1,-1,-1,-1,-1,-1,-1,-1,-1,-1,-1,-1,-1,-1,-1,-1,-1,-1],"split_conditions":[2.99E2,5.4E1,7.4E2,8E0,1.43E2,3.3E1,1.608E3,7E0,6E0,1.1E1,1.9E1,4.41E2,5.04E2,5.7E1,5.4E1,1E0,3.12E2,2.1E1,2.4E1,7.5E1,2.2E1,1.82E2,3.5E1,2.2E1,2.9E1,4.6E1,4.9E1,1.08E3,2.4E1,2.8204712E-1,8.7192917E-1,-1.24982275E-1,-1.467753E-1,-4.2661812E-2,-1.4872852E-1,-6.866803E-3,1.3005793E-1,-1.3716184E-1,-8.49357E-2,5.1677406E-2,1.8027069E-1,-2.3574462E-2,-8.808651E-2,1.14968516E-1,2.1924953E-1,2.7499167E-2,-7.033616E-2,3.579683E-1,1.4638935E-1,3.871892E-1,2.6390404E-1,7.032764E-2,-6.922299E-2,1.759191E-1,-3.158396E-3,3.0070043E-1,4.23655E-1,-9.105015E-3,1.7393892E-1],"split_indices":[4,4,4,4,4,1,4,5,1,1,1,4,4,1,0,1,7,4,4,4,1,4,1,1,1,1,1,4,0,0,0,0,0,0,0,0,0,0,0,0,0,0,0,0,0,0,0,0,0,0,0,0,0,0,0,0,0,0,0],"split_type":[0,0,0,0,0,0,0,0,0,0,0,0,0,0,0,0,0,0,0,0,0,0,0,0,0,0,0,0,0,0,0,0,0,0,0,0,0,0,0,0,0,0,0,0,0,0,0,0,0,0,0,0,0,0,0,0,0,0,0],"sum_hessian":[1.68E3,1.285E3,3.95E2,6.33E2,6.52E2,2.99E2,9.6E1,4.17E2,2.16E2,3.44E2,3.08E2,1.21E2,1.78E2,8.9E1,7E0,3.99E2,1.8E1,2.7E1,1.89E2,3.3E1,3.11E2,5.3E1,2.55E2,8.5E1,3.6E1,9.9E1,7.9E1,7.3E1,1.6E1,3E0,4E0,2.07E2,1.92E2,1.4E1,4E0,2.1E1,6E0,6.5E1,1.24E2,1.7E1,1.6E1,2.11E2,1E2,3E1,2.3E1,2.2E2,3.5E1,8E0,7.7E1,1.7E1,1.9E1,9E1,9E0,6.9E1,1E1,5.1E1,2.2E1,4E0,1.2E1],"tree_param":{"num_deleted":"0","num_feature":"12","num_nodes":"59","size_leaf_vector":"1"}},{"base_weights":[1.1326691E-2,-7.2678727E-1,1.2804743E0,-1.1465417E0,-2.2137164E-1,7.6527685E-1,2.4131305E0,-1.2217486E0,-8.0256295E-1,1.5387958E-1,-5.282007E-1,1.810095E0,5.571119E-1,1.979863E0,3.7169871E0,-1.225282E0,2.088735E-2,4.9158457E-1,-9.5923537E-1,-1.9858305E-1,6.417012E-1,-4.3123415E-1,-1.1850836E0,1.4119636E0,3.41651E0,1.2987463E-1,9.331175E-1,3.2343347E0,1.5925646E0,3.3354578E0,8.0737525E-1,-1.1922435E-1,-1.427871E-1,-4.9938885E-3,1.0414312E-1,-7.542093E-2,-1.3927694E-1,2.4359803E-1,-3.0580813E-2,1.6980043E-1,5.1793993E-2,-8.321093E-2,-2.2268487E-2,-1.3386965E-1,-9.1150194E-2,1.2055228E-1,2.525723E-1,5.3101665E-1,1.9848667E-1,3.0131945E-2,-4.5104146E-2,1.297636E-1,4.7503997E-2,2.661955E-1,4.2846128E-1,1.8171626E-1,5.3277493E-2,3.4758103E-1,2.5870323E-2],"categories":[],"categories_nodes":[],"categories_segments":[],"categories_sizes":[],"default_left":[0,0,0,0,0,0,0,0,0,0,0,0,0,0,0,0,0,0,0,0,0,0,0,0,0,0,0,0,0,0,0,0,0,0,0,0,0,0,0,0,0,0,0,0,0,0,0,0,0,0,0,0,0,0,0,0,0,0,0],"id":16,"left_children":[1,3,5,7,9,11,13,15,17,19,21,23,25,27,29,31,-1,33,35,37,39,41,43,45,47,49,51,53,55,57,-1,-1,-1,-1,-1,-1,-1,-1,-1,-1,-1,-1,-1,-1,-1,-1,-1,-1,-1,-1,-1,-1,-1,-1,-1,-1,-1,-1,-1],"loss_changes":[1.5437999E3,2.2080695E2,3.5177954E2,1.3739319E1,5.4656685E1,8.990427E1,9.94104E1,2.6065063E0,2.1761055E1,3.6922356E1,1.6113518E1,3.9305954E1,5.6104088E1,6.4812195E1,4.953308E1,1.4032593E0,0E0,3.6250656E0,7.304825E0,3.605635E1,1.08861885E1,1.8959614E1,1.6662216E-1,1.0060928E1,2.4703568E1,1.6569092E1,3.0441422E1,8.432739E0,2.5690857E1,1.8101318E1,0E0,0E0,0E0,0E0,0E0,0E0,0E0,0E0,0E0,0E0,0E0,0E0,0E0,0E0,0E0,0E0,0E0,0E0,0E0,0E0,0E0,0E0,0E0,0E0,0E0,0E0,0E0,0E0,0E0],"parents":[2147483647,0,0,1,1,2,2,3,3,4,4,5,5,6,6,7,7,8,8,9,9,10,10,11,11,12,12,13,13,14,14,15,15,17,17,18,18,19,19,20,20,21,21,22,22,23,23,24,24,25,25,26,26,27,27,28,28,29,29],"right_children":[2,4,6,8,10,12,14,16,18,20,22,24,26,28,30,32,-1,34,36,38,40,42,44,46,48,50,52,54,56,58,-1,-1,-1,-1,-1,-1,-1,-1,-1,-1,-1,-1,-1,-1,-1,-1,-1,-1,-1,-1,-1,-1,-1,-1,-1,-1,-1,-1,-1],"split_conditions":[1.76E2,3.9E1,4.95E2,1.8E1,1.8E1,2.2E1,9.66E2,2.4E1,6E0,8.7E1,3E1,1.08E2,2.99E2,3.5E1,8.5E1,6E0,2.088735E-2,2.1E1,1.8E1,7E0,1.1E1,9E1,1.25E2,2.88E2,9.6E1,3.4E1,3.4E1,6.3E2,5.1E1,6.8E1,8.0737525E-1,-1.1922435E-1,-1.427871E-1,-4.9938885E-3,1.0414312E-1,-7.542093E-2,-1.3927694E-1,2.4359803E-1,-3.0580813E-2,1.6980043E-1,5.1793993E-2,-8.321093E-2,-2.2268487E-2,-1.3386965E-1,-9.1150194E-2,1.2055228E-1,2.525723E-1,5.3101665E-1,1.9848667E-1,3.0131945E-2,-4.5104146E-2,1.297636E-1,4.7503997E-2,2.661955E-1,4.2846128E-1,1.8171626E-1,5.3277493E-2,3.4758103E-1,2.5870323E-2],"split_indices":[4,4,4,4,1,1,4,5,1,4,1,5,4,1,1,2,0,4,1,1,1,4,4,4,3,1,1,4,1,1,0,0,0,0,0,0,0,0,0,0,0,0,0,0,0,0,0,0,0,0,0,0,0,0,0,0,0,0,0],"split_type":[0,0,0,0,0,0,0,0,0,0,0,0,0,0,0,0,0,0,0,0,0,0,0,0,0,0,0,0,0,0,0,0,0,0,0,0,0,0,0,0,0,0,0,0,0,0,0,0,0,0,0,0,0,0,0,0,0,0,0],"sum_hessian":[1.646E3,1.041E3,6.05E2,5.68E2,4.73E2,4.17E2,1.88E2,4.64E2,1.04E2,2.13E2,2.6E2,6.8E1,3.49E2,1.43E2,4.5E1,4.63E2,1E0,1.1E1,9.3E1,1.24E2,8.9E1,2.28E2,3.2E1,5.6E1,1.2E1,1.64E2,1.85E2,3.2E1,1.11E2,4.3E1,2E0,4.04E2,5.9E1,6E0,5E0,6.5E1,2.8E1,4E0,1.2E2,8E0,8.1E1,7.7E1,1.51E2,1.8E1,1.4E1,4.9E1,7E0,4E0,8E0,1.27E2,3.7E1,1.02E2,8.3E1,2.3E1,9E0,9.1E1,2E1,4.1E1,2E0],"tree_param":{"num_deleted":"0","num_feature":"12","num_nodes":"59","size_leaf_vector":"1"}},{"base_weights":[2.2312833E-2,-6.3046694E-1,1.1692564E0,-1.0246886E0,-1.9170909E-1,6.953761E-1,2.273747E0,-1.0896733E0,-8.1798595E-1,1.0354068E0,-2.8893828E-1,1.5928663E0,5.0308484E-1,2.0421214E0,5.092158E0,-1.0041157E0,-1.2450128E-1,1.1031889E0,-9.4568044E-1,3.4105793E-1,2.6455898E0,-5.930601E-1,-8.038971E-2,3.6143693E-1,1.3939984E0,1.5210177E-1,9.6770835E-1,3.0679724E0,1.8413224E0,2.7630572E0,6.693807E-1,-1.0451257E-1,-6.035581E-2,1.4525807E-1,-7.978821E-3,-5.0758887E-2,-1.1098063E-1,1.3843981E-2,8.049711E-2,3.414735E-1,1.7182593E-1,-4.1152228E-2,-8.758938E-2,5.049607E-2,-3.2065872E-2,1.0965615E-1,2.484175E-1,4.2502906E-2,-2.458305E-2,1.3487168E-1,3.0407427E-2,2.5650826E-1,4.0665188E-1,1.1454456E-1,2.2632289E-1,3.3376428E-1,8.843956E-2],"categories":[],"categories_nodes":[],"categories_segments":[],"categories_sizes":[],"default_left":[0,0,0,0,0,0,0,0,0,0,0,0,0,0,0,0,0,0,0,0,0,0,0,0,0,0,0,0,0,0,0,0,0,0,0,0,0,0,0,0,0,0,0,0,0,0,0,0,0,0,0,0,0,0,0,0,0],"id":17,"left_children":[1,3,5,7,9,11,13,15,17,19,21,23,25,27,29,31,-1,33,35,37,39,41,43,-1,45,47,49,51,53,55,-1,-1,-1,-1,-1,-1,-1,-1,-1,-1,-1,-1,-1,-1,-1,-1,-1,-1,-1,-1,-1,-1,-1,-1,-1,-1,-1],"loss_changes":[1.2405872E3,1.8245764E2,3.1298004E2,6.5771484E0,6.0074234E1,7.202722E1,1.0710809E2,4.331848E0,3.4652573E1,4.046477E1,2.9444561E1,2.471045E1,5.6765976E1,2.8957153E1,2.9999847E1,3.9030151E0,0E0,3.8358011E0,8.712059E0,2.4264848E0,1.9783707E0,9.343765E0,3.9119637E1,0E0,1.964981E1,2.18258E1,3.7517426E1,2.625183E0,3.9391663E1,4.6043625E0,0E0,0E0,0E0,0E0,0E0,0E0,0E0,0E0,0E0,0E0,0E0,0E0,0E0,0E0,0E0,0E0,0E0,0E0,0E0,0E0,0E0,0E0,0E0,0E0,0E0,0E0,0E0],"parents":[2147483647,0,0,1,1,2,2,3,3,4,4,5,5,6,6,7,7,8,8,9,9,10,10,11,11,12,12,13,13,14,14,15,15,17,17,18,18,19,19,20,20,21,21,22,22,24,24,25,25,26,26,27,27,28,28,29,29],"right_children":[2,4,6,8,10,12,14,16,18,20,22,24,26,28,30,32,-1,34,36,38,40,42,44,-1,46,48,50,52,54,56,-1,-1,-1,-1,-1,-1,-1,-1,-1,-1,-1,-1,-1,-1,-1,-1,-1,-1,-1,-1,-1,-1,-1,-1,-1,-1,-1],"split_conditions":[1.76E2,3.5E1,5.04E2,8E0,1E1,2.2E1,1.404E3,2E0,4E0,7.5E1,8.8E1,1.4E1,3.24E2,3.4E1,5.4E1,3E0,-1.2450128E-1,1.1E1,8E0,5.5E1,8E0,1.9E1,1.8E1,3.6143693E-1,2.88E2,3.1E1,3.6E1,6.3E2,7.14E2,6.4E1,6.693807E-1,-1.0451257E-1,-6.035581E-2,1.4525807E-1,-7.978821E-3,-5.0758887E-2,-1.1098063E-1,1.3843981E-2,8.049711E-2,3.414735E-1,1.7182593E-1,-4.1152228E-2,-8.758938E-2,5.049607E-2,-3.2065872E-2,1.0965615E-1,2.484175E-1,4.2502906E-2,-2.458305E-2,1.3487168E-1,3.0407427E-2,2.5650826E-1,4.0665188E-1,1.1454456E-1,2.2632289E-1,3.3376428E-1,8.843956E-2],"split_indices":[4,4,4,4,1,1,4,1,1,4,4,1,4,1,0,5,0,3,1,4,1,1,1,0,4,1,1,4,4,1,0,0,0,0,0,0,0,0,0,0,0,0,0,0,0,0,0,0,0,0,0,0,0,0,0,0,0],"split_type":[0,0,0,0,0,0,0,0,0,0,0,0,0,0,0,0,0,0,0,0,0,0,0,0,0,0,0,0,0,0,0,0,0,0,0,0,0,0,0,0,0,0,0,0,0,0,0,0,0,0,0,0,0,0,0,0,0],"sum_hessian":[1.655E3,1.055E3,6E2,5.55E2,5E2,4.21E2,1.79E2,4.19E2,1.36E2,3.6E1,4.64E2,7.3E1,3.48E2,1.67E2,1.2E1,2.75E2,1.44E2,8E0,1.28E2,2.6E1,1E1,1.88E2,2.76E2,5E0,6.8E1,1.99E2,1.49E2,2.5E1,1.42E2,6E0,6E0,2.48E2,2.7E1,6E0,2E0,3.6E1,9.2E1,1.9E1,7E0,4E0,6E0,1.16E2,7.2E1,8E1,1.96E2,5.5E1,1.3E1,1.18E2,8.1E1,9.4E1,5.5E1,1.9E1,6E0,5.5E1,8.7E1,4E0,2E0],"tree_param":{"num_deleted":"0","num_feature":"12","num_nodes":"57","size_leaf_vector":"1"}},{"base_weights":[3.9376736E-2,-5.263396E-1,1.1508205E0,-8.251869E-1,-1.7605286E-2,8.579315E-1,2.4341505E0,-9.787376E-1,-6.005262E-1,9.2287815E-1,-1.7342247E-1,7.6459694E-1,2.6983533E0,2.2749324E0,7.0892495E-1,-8.9934427E-1,-1.1179038E-1,-4.27903E-2,-7.5021386E-1,3.141556E-1,7.0440054E-1,-4.6439063E-2,-7.3067623E-1,4.8678407E-1,1.1252441E0,3.7489874E0,1.5104091E0,3.0224566E0,1.8793502E0,-9.2457406E-2,-6.4949887E-3,1.330956E-1,-1.6047895E-2,-1.0293402E-1,-6.0006678E-2,4.0149525E-2,1.6521335E-1,-2.6007209E-2,3.0233586E-2,-5.18528E-2,-1.0000729E-1,7.7764496E-2,-2.751353E-3,1.5542957E-1,6.0052074E-2,9.368124E-2,3.9365238E-1,5.642214E-2,1.9129753E-1,2.4093345E-1,3.8275513E-1,1.4389007E-1,2.9085293E-1],"categories":[],"categories_nodes":[],"categories_segments":[],"categories_sizes":[],"default_left":[0,0,0,0,0,0,0,0,0,0,0,0,0,0,0,0,0,0,0,0,0,0,0,0,0,0,0,0,0,0,0,0,0,0,0,0,0,0,0,0,0,0,0,0,0,0,0,0,0,0,0,0,0],"id":18,"left_children":[1,3,5,7,9,11,13,15,17,19,21,23,25,27,-1,29,-1,31,33,-1,35,37,39,41,43,45,47,49,51,-1,-1,-1,-1,-1,-1,-1,-1,-1,-1,-1,-1,-1,-1,-1,-1,-1,-1,-1,-1,-1,-1,-1,-1],"loss_changes":[1.0588119E3,1.6965527E2,2.1140765E2,2.3663513E1,6.082905E1,7.764041E1,6.16958E1,3.5909424E0,2.4011932E1,2.6386238E1,2.5157333E1,4.3837494E1,2.1795578E1,2.4777588E1,0E0,5.623886E0,0E0,1.0237401E1,8.895889E0,0E0,1.5125711E1,2.176099E1,3.2534676E0,3.7717827E1,4.2292236E1,2.113449E0,3.491497E0,7.5612793E0,2.754599E1,0E0,0E0,0E0,0E0,0E0,0E0,0E0,0E0,0E0,0E0,0E0,0E0,0E0,0E0,0E0,0E0,0E0,0E0,0E0,0E0,0E0,0E0,0E0,0E0],"parents":[2147483647,0,0,1,1,2,2,3,3,4,4,5,5,6,6,7,7,8,8,9,9,10,10,11,11,12,12,13,13,15,15,17,17,18,18,20,20,21,21,22,22,23,23,24,24,25,25,26,26,27,27,28,28],"right_children":[2,4,6,8,10,12,14,16,18,20,22,24,26,28,-1,30,-1,32,34,-1,36,38,40,42,44,46,48,50,52,-1,-1,-1,-1,-1,-1,-1,-1,-1,-1,-1,-1,-1,-1,-1,-1,-1,-1,-1,-1,-1,-1,-1,-1],"split_conditions":[2.07E2,7E1,6.97E2,8E0,1.4E1,1.28E2,8.5E1,2E0,8E0,8E0,2.9E1,3.6E2,2.03E2,4.6E1,7.0892495E-1,3E0,-1.1179038E-1,3E0,3.2E1,3.141556E-1,1.12E2,1.32E2,3.2E1,3.1E1,3.7E1,2.4E1,3.99E2,8.64E2,1.224E3,-9.2457406E-2,-6.4949887E-3,1.330956E-1,-1.6047895E-2,-1.0293402E-1,-6.0006678E-2,4.0149525E-2,1.6521335E-1,-2.6007209E-2,3.0233586E-2,-5.18528E-2,-1.0000729E-1,7.7764496E-2,-2.751353E-3,1.5542957E-1,6.0052074E-2,9.368124E-2,3.9365238E-1,5.642214E-2,1.9129753E-1,2.4093345E-1,3.8275513E-1,1.4389007E-1,2.9085293E-1],"split_indices":[4,4,4,4,1,5,1,1,1,1,1,4,3,1,0,4,0,1,4,0,4,4,1,1,1,0,4,4,4,0,0,0,0,0,0,0,0,0,0,0,0,0,0,0,0,0,0,0,0,0,0,0,0],"split_type":[0,0,0,0,0,0,0,0,0,0,0,0,0,0,0,0,0,0,0,0,0,0,0,0,0,0,0,0,0,0,0,0,0,0,0,0,0,0,0,0,0,0,0,0,0,0,0,0,0,0,0,0,0],"sum_hessian":[1.682E3,1.115E3,5.67E2,7.02E2,4.13E2,4.63E2,1.04E2,4.15E2,2.87E2,5.8E1,3.55E2,4.42E2,2.1E1,1.02E2,2E0,2.69E2,1.46E2,6.1E1,2.26E2,4E0,5.4E1,2.9E2,6.5E1,2.51E2,1.91E2,1E1,1.1E1,3.3E1,6.9E1,2.61E2,8E0,4E0,5.7E1,7.7E1,1.49E2,4.2E1,1.2E1,1.8E2,1.1E2,3.8E1,2.7E1,1.6E2,9.1E1,1.04E2,8.7E1,1E0,9E0,4E0,7E0,2.1E1,1.2E1,5E1,1.9E1],"tree_param":{"num_deleted":"0","num_feature":"12","num_nodes":"53","size_leaf_vector":"1"}},{"base_weights":[3.18446E-2,-5.00979E-1,9.91769E-1,-8.439024E-1,-1.7397909E-1,6.4433E-1,1.8219408E0,-8.652811E-1,-3.633506E-1,8.745481E-1,-2.557151E-1,1.4532301E0,4.292775E-1,1.5352187E0,2.8863614E0,-8.18838E-1,-1.0384723E0,1.0069539E-3,-1.09219156E-1,2.9614806E-1,1.927566E0,-1.5572636E-1,-8.172657E-1,1.1584516E0,3.2236233E0,6.73253E-2,7.1344674E-1,1.8066978E0,5.625173E-1,3.115051E0,2.7808142E-1,-8.421616E-2,-3.5891075E-2,-1.0429398E-1,-2.9363096E-2,-2.6763916E-2,2.6954118E-2,9.956107E-2,1.3121495E-2,2.1386614E-1,-4.083362E-2,-4.2059638E-2,1.4075823E-2,-5.608919E-2,-1.0286941E-1,8.840646E-2,2.0087166E-1,3.8268775E-1,1.06039576E-1,1.9828659E-2,-4.3334424E-2,8.426117E-2,-2.9359093E-2,1.5065397E-1,2.327874E-1,7.46429E-5,1.0581535E-1,3.174532E-1,6.0582925E-2,-3.911371E-2,6.3153334E-2],"categories":[],"categories_nodes":[],"categories_segments":[],"categories_sizes":[],"default_left":[0,0,0,0,0,0,0,0,0,0,0,0,0,0,0,0,0,0,0,0,0,0,0,0,0,0,0,0,0,0,0,0,0,0,0,0,0,0,0,0,0,0,0,0,0,0,0,0,0,0,0,0,0,0,0,0,0,0,0,0,0],"id":19,"left_children":[1,3,5,7,9,11,13,15,17,19,21,23,25,27,29,31,33,35,-1,37,39,41,43,45,47,49,51,53,55,57,59,-1,-1,-1,-1,-1,-1,-1,-1,-1,-1,-1,-1,-1,-1,-1,-1,-1,-1,-1,-1,-1,-1,-1,-1,-1,-1,-1,-1,-1,-1],"loss_changes":[8.5260645E2,1.200629E2,1.704444E2,5.0586853E0,4.7359978E1,7.261163E1,4.897754E1,3.1714172E0,6.374509E0,2.3791782E1,2.8564735E1,4.219049E1,3.430577E1,3.5953247E1,2.06073E1,3.9779053E0,3.3172607E-2,1.2985312E0,0E0,2.9842038E0,7.7766647E0,3.4219696E1,3.5967789E0,1.61884E1,1.1601707E1,9.790039E0,2.4571213E1,1.3544373E1,8.909099E0,3.0020447E0,1.1931623E0,0E0,0E0,0E0,0E0,0E0,0E0,0E0,0E0,0E0,0E0,0E0,0E0,0E0,0E0,0E0,0E0,0E0,0E0,0E0,0E0,0E0,0E0,0E0,0E0,0E0,0E0,0E0,0E0,0E0,0E0],"parents":[2147483647,0,0,1,1,2,2,3,3,4,4,5,5,6,6,7,7,8,8,9,9,10,10,11,11,12,12,13,13,14,14,15,15,16,16,17,17,19,19,20,20,21,21,22,22,23,23,24,24,25,25,26,26,27,27,28,28,29,29,30,30],"right_children":[2,4,6,8,10,12,14,16,18,20,22,24,26,28,30,32,34,36,-1,38,40,42,44,46,48,50,52,54,56,58,60,-1,-1,-1,-1,-1,-1,-1,-1,-1,-1,-1,-1,-1,-1,-1,-1,-1,-1,-1,-1,-1,-1,-1,-1,-1,-1,-1,-1,-1,-1],"split_conditions":[1.86E2,3E1,5.25E2,1.1E1,1E1,2.4E1,1.08E3,4E0,7E0,5.7E1,2.7E1,1.08E2,3.12E2,5E1,6.7E1,4E0,2.1E1,1.6E1,-1.09219156E-1,6E0,4.1E1,9.3E1,3.1E1,2.88E2,1.48E2,3.5E1,4.2E1,7.4E2,8.82E2,6.6E2,1E0,-8.421616E-2,-3.5891075E-2,-1.0429398E-1,-2.9363096E-2,-2.6763916E-2,2.6954118E-2,9.956107E-2,1.3121495E-2,2.1386614E-1,-4.083362E-2,-4.2059638E-2,1.4075823E-2,-5.608919E-2,-1.0286941E-1,8.840646E-2,2.0087166E-1,3.8268775E-1,1.06039576E-1,1.9828659E-2,-4.3334424E-2,8.426117E-2,-2.9359093E-2,1.5065397E-1,2.327874E-1,7.46429E-5,1.0581535E-1,3.174532E-1,6.0582925E-2,-3.911371E-2,6.3153334E-2],"split_indices":[4,4,4,5,1,1,4,2,2,4,1,5,4,1,1,5,4,5,0,1,3,4,1,4,3,1,1,4,4,7,2,0,0,0,0,0,0,0,0,0,0,0,0,0,0,0,0,0,0,0,0,0,0,0,0,0,0,0,0,0,0],"split_type":[0,0,0,0,0,0,0,0,0,0,0,0,0,0,0,0,0,0,0,0,0,0,0,0,0,0,0,0,0,0,0,0,0,0,0,0,0,0,0,0,0,0,0,0,0,0,0,0,0,0,0,0,0,0,0,0,0,0,0,0,0],"sum_hessian":[1.665E3,1.071E3,5.94E2,5.22E2,5.49E2,4.2E2,1.74E2,4.99E2,2.3E1,3.9E1,5.1E2,8.7E1,3.33E2,1.39E2,3.5E1,3.98E2,1.01E2,1.6E1,7E0,2.6E1,1.3E1,4.34E2,7.6E1,7.6E1,1.1E1,1.47E2,1.86E2,1.08E2,3.1E1,3.2E1,3E0,3.78E2,2E1,1E2,1E0,8E0,8E0,4E0,2.2E1,1.2E1,1E0,2.29E2,2.05E2,3.6E1,4E1,5.9E1,1.7E1,8E0,3E0,1.17E2,3E1,1.65E2,2.1E1,7.1E1,3.7E1,1.5E1,1.6E1,3.1E1,1E0,1E0,2E0],"tree_param":{"num_deleted":"0","num_feature":"12","num_nodes":"61","size_leaf_vector":"1"}},{"base_weights":[3.3605702E-2,-3.8339654E-1,1.0747523E0,-6.8482417E-1,-2.3497427E-2,7.680567E-1,1.9241452E0,-7.713733E-1,-4.71854E-1,-5.845522E-2,3.1732306E0,9.127654E-1,-1.4160413E-1,1.5952946E0,2.945214E0,-7.1686596E-1,-8.898594E-1,-1.1642329E-1,-7.564392E-1,2.4532579E-1,-2.8562108E-1,4.406929E-3,3.7902492E-1,5.6090516E-1,1.1934426E0,-7.838273E-1,1.8367231E-1,3.0438123E0,1.4166228E0,2.6147497E0,6.26434E-1,-7.476783E-2,1.04593515E-1,-9.4403915E-2,-7.508892E-2,8.933939E-2,-2.0225411E-2,-6.350169E-2,-1.00947656E-1,8.444431E-3,9.8260395E-2,-1.7214302E-2,-6.5133184E-2,1.1213907E-1,2.8950775E-2,2.2207823E-1,1.0106063E-1,-5.2618958E-2,-1.0767114E-1,4.7668107E-2,-5.6721676E-2,3.2073718E-1,7.8588866E-2,1.0571919E-1,2.1747486E-1,3.2670623E-1,1.560591E-1],"categories":[],"categories_nodes":[],"categories_segments":[],"categories_sizes":[],"default_left":[0,0,0,0,0,0,0,0,0,0,0,0,0,0,0,0,0,0,0,0,0,0,0,0,0,0,0,0,0,0,0,0,0,0,0,0,0,0,0,0,0,0,0,0,0,0,0,0,0,0,0,0,0,0,0,0,0],"id":20,"left_children":[1,3,5,7,9,11,13,15,17,19,21,23,25,27,29,31,33,35,37,39,41,-1,-1,43,45,47,49,51,53,55,-1,-1,-1,-1,-1,-1,-1,-1,-1,-1,-1,-1,-1,-1,-1,-1,-1,-1,-1,-1,-1,-1,-1,-1,-1,-1,-1],"loss_changes":[7.363141E2,1.3135747E2,1.2486713E2,1.1782959E1,6.198355E1,4.7254898E1,3.828125E1,2.3781433E0,1.943394E1,3.7886826E1,1.1417469E1,2.9847168E1,1.0588971E1,2.1310196E1,1.652591E1,1.8434738E1,3.6782837E-1,7.7212815E0,2.6464767E0,2.7791407E1,1.2918924E1,0E0,0E0,2.0819248E1,2.9875443E1,7.1623135E-1,7.7509613E0,1.1724167E0,2.2225342E1,1.4843048E1,0E0,0E0,0E0,0E0,0E0,0E0,0E0,0E0,0E0,0E0,0E0,0E0,0E0,0E0,0E0,0E0,0E0,0E0,0E0,0E0,0E0,0E0,0E0,0E0,0E0,0E0,0E0],"parents":[2147483647,0,0,1,1,2,2,3,3,4,4,5,5,6,6,7,7,8,8,9,9,10,10,11,11,12,12,13,13,14,14,15,15,16,16,17,17,18,18,19,19,20,20,23,23,24,24,25,25,26,26,27,27,28,28,29,29],"right_children":[2,4,6,8,10,12,14,16,18,20,22,24,26,28,30,32,34,36,38,40,42,-1,-1,44,46,48,50,52,54,56,-1,-1,-1,-1,-1,-1,-1,-1,-1,-1,-1,-1,-1,-1,-1,-1,-1,-1,-1,-1,-1,-1,-1,-1,-1,-1,-1],"split_conditions":[2.4E2,6E1,6.44E2,1.6E1,1.36E2,4E1,1.25E2,3E0,1.2E1,2E1,4.2E1,3.36E2,3.99E2,3.7E1,6.8E1,6E0,9E0,5E0,2E1,1.55E2,3.1E1,4.406929E-3,3.7902492E-1,2.5E1,2.6E1,4.4E1,4.7E1,3E0,1.008E3,9E0,6.26434E-1,-7.476783E-2,1.04593515E-1,-9.4403915E-2,-7.508892E-2,8.933939E-2,-2.0225411E-2,-6.350169E-2,-1.00947656E-1,8.444431E-3,9.8260395E-2,-1.7214302E-2,-6.5133184E-2,1.1213907E-1,2.8950775E-2,2.2207823E-1,1.0106063E-1,-5.2618958E-2,-1.0767114E-1,4.7668107E-2,-5.6721676E-2,3.2073718E-1,7.8588866E-2,1.0571919E-1,2.1747486E-1,3.2670623E-1,1.560591E-1],"split_indices":[4,4,4,4,5,1,5,1,1,1,0,4,4,1,1,4,4,1,1,4,1,0,0,1,1,1,1,2,4,2,0,0,0,0,0,0,0,0,0,0,0,0,0,0,0,0,0,0,0,0,0,0,0,0,0,0,0],"split_type":[0,0,0,0,0,0,0,0,0,0,0,0,0,0,0,0,0,0,0,0,0,0,0,0,0,0,0,0,0,0,0,0,0,0,0,0,0,0,0,0,0,0,0,0,0,0,0,0,0,0,0,0,0,0,0,0,0],"sum_hessian":[1.694E3,1.21E3,4.84E2,6.58E2,5.52E2,3.57E2,1.27E2,4.66E2,1.92E2,5.47E2,5E0,3.08E2,4.9E1,9.8E1,2.9E1,3.24E2,1.42E2,8.6E1,1.06E2,2.34E2,3.13E2,1E0,4E0,1.38E2,1.7E2,1.6E1,3.3E1,9E0,8.9E1,2.8E1,1E0,3.19E2,5E0,9.8E1,4.4E1,6E0,8E1,7.4E1,3.2E1,1.93E2,4.1E1,2.4E2,7.3E1,4.4E1,9.4E1,2.4E1,1.46E2,1E1,6E0,2.4E1,9E0,8E0,1E0,6.2E1,2.7E1,1.6E1,1.2E1],"tree_param":{"num_deleted":"0","num_feature":"12","num_nodes":"57","size_leaf_vector":"1"}},{"base_weights":[3.129087E-2,-4.5952544E-1,7.558521E-1,-6.713479E-1,-1.8270697E-1,4.6077168E-1,1.5979922E0,-7.298499E-1,-5.400551E-1,5.1789725E-1,-3.1886134E-1,1.9117787E0,3.644963E-1,1.5067439E0,6.327316E-1,-7.5311446E-1,-2.8741154E-1,-2.2690399E-1,-7.013826E-1,1.4807546E-1,1.0183846E0,-2.1423209E-1,-6.00669E-1,2.3355627E0,1.2303579E0,1.528098E-1,7.228853E-1,2.4700043E0,1.3500437E0,-6.872552E-2,-8.5667215E-2,-1.5744364E-2,-1.0147377E-1,-5.6786E-2,3.3660386E-2,-8.325501E-2,-5.1531192E-2,4.9195558E-2,-8.246446E-3,2.1541381E-1,8.124068E-2,-4.2534396E-2,2.53879E-3,-7.6352276E-2,-3.556401E-2,2.4637046E-1,7.857609E-3,5.7082843E-2,1.358336E-1,2.5340257E-2,-3.897899E-2,1.4749722E-1,4.512016E-2,1.9123602E-1,3.2765418E-1,1.0114326E-1,2.055575E-1],"categories":[],"categories_nodes":[],"categories_segments":[],"categories_sizes":[],"default_left":[0,0,0,0,0,0,0,0,0,0,0,0,0,0,0,0,0,0,0,0,0,0,0,0,0,0,0,0,0,0,0,0,0,0,0,0,0,0,0,0,0,0,0,0,0,0,0,0,0,0,0,0,0,0,0,0,0],"id":21,"left_children":[1,3,5,7,9,11,13,15,17,19,21,23,25,27,-1,29,31,33,35,37,39,41,43,45,47,49,51,53,55,-1,-1,-1,-1,-1,-1,-1,-1,-1,-1,-1,-1,-1,-1,-1,-1,-1,-1,-1,-1,-1,-1,-1,-1,-1,-1,-1,-1],"loss_changes":[5.953104E2,5.839644E1,1.6724905E2,3.9455566E0,4.1564545E1,6.9430695E1,6.598639E1,3.7772675E0,8.833389E0,1.2990671E1,1.0603981E1,6.0784607E0,3.5698345E1,2.2778564E1,0E0,1.9210815E0,1.8253461E0,1.2103291E1,2.4265327E0,3.3702495E0,5.26816E0,1.3517427E1,3.639042E0,5.0122757E0,4.062996E-1,1.636409E1,3.50922E1,4.0785675E0,3.3994904E1,0E0,0E0,0E0,0E0,0E0,0E0,0E0,0E0,0E0,0E0,0E0,0E0,0E0,0E0,0E0,0E0,0E0,0E0,0E0,0E0,0E0,0E0,0E0,0E0,0E0,0E0,0E0,0E0],"parents":[2147483647,0,0,1,1,2,2,3,3,4,4,5,5,6,6,7,7,8,8,9,9,10,10,11,11,12,12,13,13,15,15,16,16,17,17,18,18,19,19,20,20,21,21,22,22,23,23,24,24,25,25,26,26,27,27,28,28],"right_children":[2,4,6,8,10,12,14,16,18,20,22,24,26,28,-1,30,32,34,36,38,40,42,44,46,48,50,52,54,56,-1,-1,-1,-1,-1,-1,-1,-1,-1,-1,-1,-1,-1,-1,-1,-1,-1,-1,-1,-1,-1,-1,-1,-1,-1,-1,-1,-1],"split_conditions":[1.56E2,3.5E1,5.25E2,1E0,1.2E1,1.8E1,8.5E1,1E0,6E0,7.8E1,2.3E1,1.6E1,3.25E2,3.4E1,6.327316E-1,1E0,7E0,6E0,2.4E1,9E0,8E0,9E1,1.15E2,7.2E1,1.62E2,3.5E1,2.9E1,6.44E2,9.31E2,-6.872552E-2,-8.5667215E-2,-1.5744364E-2,-1.0147377E-1,-5.6786E-2,3.3660386E-2,-8.325501E-2,-5.1531192E-2,4.9195558E-2,-8.246446E-3,2.1541381E-1,8.124068E-2,-4.2534396E-2,2.53879E-3,-7.6352276E-2,-3.556401E-2,2.4637046E-1,7.857609E-3,5.7082843E-2,1.358336E-1,2.5340257E-2,-3.897899E-2,1.4749722E-1,4.512016E-2,1.9123602E-1,3.2765418E-1,1.0114326E-1,2.055575E-1],"split_indices":[4,4,4,4,1,1,1,5,1,4,1,1,4,1,0,2,2,4,4,1,1,4,4,0,4,1,1,4,4,0,0,0,0,0,0,0,0,0,0,0,0,0,0,0,0,0,0,0,0,0,0,0,0,0,0,0,0],"split_type":[0,0,0,0,0,0,0,0,0,0,0,0,0,0,0,0,0,0,0,0,0,0,0,0,0,0,0,0,0,0,0,0,0,0,0,0,0,0,0,0,0,0,0,0,0,0,0,0,0,0,0,0,0,0,0,0,0],"sum_hessian":[1.672E3,9.97E2,6.75E2,5.64E2,4.33E2,5.01E2,1.74E2,3.87E2,1.77E2,7E1,3.63E2,3E1,4.71E2,1.72E2,2E0,3.67E2,2E1,6.1E1,1.16E2,4.1E1,2.9E1,2.66E2,9.7E1,1.7E1,1.3E1,2.97E2,1.74E2,2.2E1,1.5E2,2.29E2,1.38E2,1.8E1,2E0,3.8E1,2.3E1,6.6E1,5E1,1.6E1,2.5E1,3E0,2.6E1,1.41E2,1.25E2,5.7E1,4E1,1.6E1,1E0,3E0,1E1,2.51E2,4.6E1,4.5E1,1.29E2,1.5E1,7E0,1.03E2,4.7E1],"tree_param":{"num_deleted":"0","num_feature":"12","num_nodes":"57","size_leaf_vector":"1"}},{"base_weights":[1.0516242E-2,-3.4403616E-1,8.065142E-1,-6.190421E-1,-5.9225384E-2,7.2187895E-1,3.39567E0,-6.829674E-1,-4.992793E-1,3.6604548E-1,-1.739543E-1,5.9628505E-1,1.8377866E0,1.8608031E0,4.3826995E0,-7.025504E-1,-3.7678686E-1,-9.155328E-2,-5.756416E-1,1.03965044E-1,8.9415926E-1,-3.560142E-1,7.0646495E-2,4.0055537E-1,9.662185E-1,3.0031116E0,1.4321023E0,2.3171301E-1,3.278815E-1,1.9873852E0,5.901474E0,-6.602607E-2,-7.701453E-2,-1.726606E-2,-8.770172E-2,-3.3975E-2,1.1233231E-1,-6.618619E-2,-3.7549075E-2,1.6723715E-1,-1.9598634E-3,6.756877E-2,1.4087038E-1,-2.851043E-2,-7.335728E-2,2.8253028E-2,-2.6365926E-2,6.565489E-2,1.10615855E-2,1.6260575E-1,6.9836915E-2,3.8093734E-1,2.1238092E-1,6.475874E-2,1.6136679E-1,4.298277E-2,6.1994554E-3,2.2868668E-1,3.9472964E-2,1.6977215E-1,6.527982E-1],"categories":[],"categories_nodes":[],"categories_segments":[],"categories_sizes":[],"default_left":[0,0,0,0,0,0,0,0,0,0,0,0,0,0,0,0,0,0,0,0,0,0,0,0,0,0,0,0,0,0,0,0,0,0,0,0,0,0,0,0,0,0,0,0,0,0,0,0,0,0,0,0,0,0,0,0,0,0,0,0,0],"id":22,"left_children":[1,3,5,7,9,11,13,15,17,19,21,23,25,27,29,31,33,35,37,39,41,43,45,47,49,51,53,-1,55,57,59,-1,-1,-1,-1,-1,-1,-1,-1,-1,-1,-1,-1,-1,-1,-1,-1,-1,-1,-1,-1,-1,-1,-1,-1,-1,-1,-1,-1,-1,-1],"loss_changes":[4.707432E2,9.0349976E1,1.1018356E2,4.1530304E0,2.7776886E1,6.883963E1,1.6084015E1,2.0137482E0,6.423355E0,1.665444E1,1.9975487E1,3.219609E1,1.9336945E1,4.836361E0,2.1012985E1,5.0914E-1,2.4013276E0,1.0633612E1,2.7714615E0,1.5924215E1,3.5446892E0,6.671425E0,1.3674613E1,2.1897274E1,2.6258713E1,4.1698456E-1,4.510208E0,0E0,5.4671496E-2,1.4821606E0,2.0857239E0,0E0,0E0,0E0,0E0,0E0,0E0,0E0,0E0,0E0,0E0,0E0,0E0,0E0,0E0,0E0,0E0,0E0,0E0,0E0,0E0,0E0,0E0,0E0,0E0,0E0,0E0,0E0,0E0,0E0,0E0],"parents":[2147483647,0,0,1,1,2,2,3,3,4,4,5,5,6,6,7,7,8,8,9,9,10,10,11,11,12,12,13,13,14,14,15,15,16,16,17,17,18,18,19,19,20,20,21,21,22,22,23,23,24,24,25,25,26,26,28,28,29,29,30,30],"right_children":[2,4,6,8,10,12,14,16,18,20,22,24,26,28,30,32,34,36,38,40,42,44,46,48,50,52,54,-1,56,58,60,-1,-1,-1,-1,-1,-1,-1,-1,-1,-1,-1,-1,-1,-1,-1,-1,-1,-1,-1,-1,-1,-1,-1,-1,-1,-1,-1,-1,-1,-1],"split_conditions":[2.17E2,4E1,1.292E3,1E0,1.5E1,1.2E2,5.4E1,1E0,3E0,9E1,1.32E2,4.8E2,2.03E2,6.4E1,5.7E1,1E0,5E0,6E0,2.8E1,7E0,1.28E2,2.7E1,2.6E1,3.1E1,3.7E1,6E0,5.2E2,2.3171301E-1,1.8E1,7E0,4.032E3,-6.602607E-2,-7.701453E-2,-1.726606E-2,-8.770172E-2,-3.3975E-2,1.1233231E-1,-6.618619E-2,-3.7549075E-2,1.6723715E-1,-1.9598634E-3,6.756877E-2,1.4087038E-1,-2.851043E-2,-7.335728E-2,2.8253028E-2,-2.6365926E-2,6.565489E-2,1.10615855E-2,1.6260575E-1,6.9836915E-2,3.8093734E-1,2.1238092E-1,6.475874E-2,1.6136679E-1,4.298277E-2,6.1994554E-3,2.2868668E-1,3.9472964E-2,1.6977215E-1,6.527982E-1],"split_indices":[4,4,4,4,1,5,0,5,1,4,4,4,3,1,1,2,2,4,4,1,4,1,1,1,1,2,4,0,0,2,6,0,0,0,0,0,0,0,0,0,0,0,0,0,0,0,0,0,0,0,0,0,0,0,0,0,0,0,0,0,0],"split_type":[0,0,0,0,0,0,0,0,0,0,0,0,0,0,0,0,0,0,0,0,0,0,0,0,0,0,0,0,0,0,0,0,0,0,0,0,0,0,0,0,0,0,0,0,0,0,0,0,0,0,0,0,0,0,0,0,0,0,0,0,0],"sum_hessian":[1.666E3,1.153E3,5.13E2,5.86E2,5.67E2,4.98E2,1.5E1,3.79E2,2.07E2,1.2E2,4.47E2,4.49E2,4.9E1,7E0,8E0,3.55E2,2.4E1,3.3E1,1.74E2,8.1E1,3.9E1,2.56E2,1.91E2,2.95E2,1.54E2,1.1E1,3.8E1,5E0,2E0,4E0,4E0,2.25E2,1.3E2,1.8E1,6E0,2.8E1,5E0,1.2E2,5.4E1,5E0,7.6E1,2.9E1,1E1,2.17E2,3.9E1,1.17E2,7.4E1,1.56E2,1.39E2,4.3E1,1.11E2,4E0,7E0,8E0,3E1,1E0,1E0,3E0,1E0,1E0,3E0],"tree_param":{"num_deleted":"0","num_feature":"12","num_nodes":"61","size_leaf_vector":"1"}},{"base_weights":[1.1220379E-2,-3.386659E-1,6.5551144E-1,-5.194374E-1,-6.652682E-2,4.9904844E-1,1.5359416E0,-5.810706E-1,-4.0275556E-1,8.9776343E-1,-1.4236614E-1,4.3977064E-1,1.5321974E0,1.3213247E0,2.6889844E0,-5.283537E-1,-6.876419E-2,7.827374E-1,-4.5457536E-1,2.7240726E-1,6.8520707E-1,-4.4748805E-2,-5.0507313E-1,1.1228404E0,3.7497422E-1,1.9810364E0,1.041057E0,2.0044665E0,6.393068E-1,1.6380665E0,3.6420444E-1,-5.4793295E-2,-2.9106298E-3,1.6444634E-1,1.7850297E-2,-3.1868264E-2,-6.8551734E-2,7.987405E-2,-6.0284074E-2,-1.6969556E-2,2.5427923E-2,-3.4478825E-2,-7.1811356E-2,8.959966E-2,1.8298411E-1,1.9229408E-2,7.221238E-2,9.2112035E-2,2.528344E-1,2.7198477E-2,1.2959938E-1,3.300995E-1,1.7079929E-1,9.746777E-2,-5.3144796E-3,2.0283449E-1,3.1148782E-2],"categories":[],"categories_nodes":[],"categories_segments":[],"categories_sizes":[],"default_left":[0,0,0,0,0,0,0,0,0,0,0,0,0,0,0,0,0,0,0,0,0,0,0,0,0,0,0,0,0,0,0,0,0,0,0,0,0,0,0,0,0,0,0,0,0,0,0,0,0,0,0,0,0,0,0,0,0],"id":23,"left_children":[1,3,5,7,9,11,13,15,17,19,21,23,25,27,29,31,-1,33,35,-1,37,39,41,43,45,47,49,51,53,55,-1,-1,-1,-1,-1,-1,-1,-1,-1,-1,-1,-1,-1,-1,-1,-1,-1,-1,-1,-1,-1,-1,-1,-1,-1,-1,-1],"loss_changes":[3.7984375E2,5.3686363E1,8.092206E1,4.4835815E0,3.208611E1,3.0253784E1,1.8471146E1,2.035614E0,1.4485168E1,1.0555643E1,1.4352433E1,2.0779732E1,3.889595E0,3.459398E1,7.0547256E0,2.8187637E0,0E0,4.9133034E0,6.7172546E0,0E0,4.8686066E0,1.2036539E1,2.6890583E0,4.935997E0,2.7701351E1,5.212387E0,2.588482E0,8.968613E0,9.340925E0,3.5100765E0,0E0,0E0,0E0,0E0,0E0,0E0,0E0,0E0,0E0,0E0,0E0,0E0,0E0,0E0,0E0,0E0,0E0,0E0,0E0,0E0,0E0,0E0,0E0,0E0,0E0,0E0,0E0],"parents":[2147483647,0,0,1,1,2,2,3,3,4,4,5,5,6,6,7,7,8,8,9,9,10,10,11,11,12,12,13,13,14,14,15,15,17,17,18,18,20,20,21,21,22,22,23,23,24,24,25,25,26,26,27,27,28,28,29,29],"right_children":[2,4,6,8,10,12,14,16,18,20,22,24,26,28,30,32,-1,34,36,-1,38,40,42,44,46,48,50,52,54,56,-1,-1,-1,-1,-1,-1,-1,-1,-1,-1,-1,-1,-1,-1,-1,-1,-1,-1,-1,-1,-1,-1,-1,-1,-1,-1,-1],"split_conditions":[1.86E2,5.5E1,7.4E2,8E0,1.1E1,1.32E2,1.404E3,2E0,4E0,5E0,2.6E1,2.1E1,2.1E2,4.9E1,5.4E1,2E0,-6.876419E-2,1E0,1.5E1,2.7240726E-1,7E0,1.28E2,3.1E1,2.72E2,4.14E2,1.36E2,3.4E2,3.7E1,5.7E1,6.4E1,3.6420444E-1,-5.4793295E-2,-2.9106298E-3,1.6444634E-1,1.7850297E-2,-3.1868264E-2,-6.8551734E-2,7.987405E-2,-6.0284074E-2,-1.6969556E-2,2.5427923E-2,-3.4478825E-2,-7.1811356E-2,8.959966E-2,1.8298411E-1,1.9229408E-2,7.221238E-2,9.2112035E-2,2.528344E-1,2.7198477E-2,1.2959938E-1,3.300995E-1,1.7079929E-1,9.746777E-2,-5.3144796E-3,2.0283449E-1,3.1148782E-2],"split_indices":[4,4,4,4,1,5,4,1,1,1,1,1,3,1,0,4,0,2,1,0,2,4,1,4,4,5,4,1,1,1,0,0,0,0,0,0,0,0,0,0,0,0,0,0,0,0,0,0,0,0,0,0,0,0,0,0,0],"split_type":[0,0,0,0,0,0,0,0,0,0,0,0,0,0,0,0,0,0,0,0,0,0,0,0,0,0,0,0,0,0,0,0,0,0,0,0,0,0,0,0,0,0,0,0,0,0,0,0,0,0,0,0,0,0,0,0,0],"sum_hessian":[1.683E3,1.091E3,5.92E2,6.55E2,4.36E2,5.04E2,8.8E1,4.26E2,2.29E2,3.1E1,4.05E2,4.78E2,2.6E1,7.6E1,1.2E1,2.89E2,1.37E2,9E0,2.2E2,2E0,2.9E1,3.2E2,8.5E1,4E1,4.38E2,1.2E1,1.4E1,3.7E1,3.9E1,7E0,5E0,2.78E2,1.1E1,3E0,6E0,1.4E2,8E1,2.7E1,2E0,2.26E2,9.4E1,5E1,3.5E1,3.2E1,8E0,2.88E2,1.5E2,5E0,7E0,4E0,1E1,5E0,3.2E1,2.6E1,1.3E1,5E0,2E0],"tree_param":{"num_deleted":"0","num_feature":"12","num_nodes":"57","size_leaf_vector":"1"}},{"base_weights":[2.6305895E-2,-2.245207E-1,8.169305E-1,-4.2846474E-1,4.2071488E-2,7.60306E-1,4.4746156E0,-4.9678847E-1,-2.7771366E-1,4.7073078E-1,-1.0023331E-1,5.716201E-1,1.2686582E0,6.655073E-2,5.1033354E0,-4.4671866E-1,-6.219909E-1,1.5595508E-1,-4.5054552E-1,2.930188E-1,1.4025164E0,-2.7024537E-1,5.927213E-2,1.2019978E0,3.5510457E-1,1.5252486E0,1.9629279E-1,1.22787856E-1,5.76523E-1,-4.9513806E-2,4.4834226E-2,-5.5419337E-2,-7.166927E-2,7.7185206E-2,4.516693E-3,-3.6764223E-2,-7.8103274E-2,1.5175313E-1,1.5295178E-2,1.4766933E-1,-7.759905E-3,-2.0358952E-2,-6.2007535E-2,1.3036422E-2,-5.76788E-2,1.7464638E-1,9.430408E-2,4.9884375E-2,-2.8811237E-2,2.6818937E-1,1.304427E-1,-5.1885273E-2,4.3715045E-2],"categories":[],"categories_nodes":[],"categories_segments":[],"categories_sizes":[],"default_left":[0,0,0,0,0,0,0,0,0,0,0,0,0,0,0,0,0,0,0,0,0,0,0,0,0,0,0,0,0,0,0,0,0,0,0,0,0,0,0,0,0,0,0,0,0,0,0,0,0,0,0,0,0],"id":24,"left_children":[1,3,5,7,9,11,13,15,17,19,21,23,25,-1,27,29,31,33,35,37,39,41,43,45,47,49,51,-1,-1,-1,-1,-1,-1,-1,-1,-1,-1,-1,-1,-1,-1,-1,-1,-1,-1,-1,-1,-1,-1,-1,-1,-1,-1],"loss_changes":[3.3512845E2,6.97746E1,8.0893524E1,7.3500366E0,3.4024334E1,3.7834198E1,1.09728775E1,2.8503036E0,1.7234219E1,2.2605976E1,1.1378397E1,3.98367E1,2.941777E1,0E0,5.7467194E0,1.5823799E1,5.016937E-1,4.468587E0,4.206211E0,2.0006516E1,2.529976E0,4.607357E0,9.887684E0,8.927513E0,2.057638E1,1.8722534E1,4.0162783E0,0E0,0E0,0E0,0E0,0E0,0E0,0E0,0E0,0E0,0E0,0E0,0E0,0E0,0E0,0E0,0E0,0E0,0E0,0E0,0E0,0E0,0E0,0E0,0E0,0E0,0E0],"parents":[2147483647,0,0,1,1,2,2,3,3,4,4,5,5,6,6,7,7,8,8,9,9,10,10,11,11,12,12,14,14,15,15,16,16,17,17,18,18,19,19,20,20,21,21,22,22,23,23,24,24,25,25,26,26],"right_children":[2,4,6,8,10,12,14,16,18,20,22,24,26,-1,28,30,32,34,36,38,40,42,44,46,48,50,52,-1,-1,-1,-1,-1,-1,-1,-1,-1,-1,-1,-1,-1,-1,-1,-1,-1,-1,-1,-1,-1,-1,-1,-1,-1,-1],"split_conditions":[2.88E2,7.5E1,1.608E3,2.4E1,1.8E1,6.8E2,5.7E1,4E0,1.2E1,1.62E2,1.71E2,2.9E1,5.4E1,6.655073E-2,5.4E1,4E0,9E0,7E0,2.4E1,1E1,6E1,3E1,3.6E1,2.4E1,4.2E1,3.9E1,1.8E1,1.22787856E-1,5.76523E-1,-4.9513806E-2,4.4834226E-2,-5.5419337E-2,-7.166927E-2,7.7185206E-2,4.516693E-3,-3.6764223E-2,-7.8103274E-2,1.5175313E-1,1.5295178E-2,1.4766933E-1,-7.759905E-3,-2.0358952E-2,-6.2007535E-2,1.3036422E-2,-5.76788E-2,1.7464638E-1,9.430408E-2,4.9884375E-2,-2.8811237E-2,2.6818937E-1,1.304427E-1,-5.1885273E-2,4.3715045E-2],"split_indices":[4,4,4,4,1,4,1,1,1,4,4,1,1,0,0,4,1,1,1,1,0,1,1,1,1,1,0,0,0,0,0,0,0,0,0,0,0,0,0,0,0,0,0,0,0,0,0,0,0,0,0,0,0],"split_type":[0,0,0,0,0,0,0,0,0,0,0,0,0,0,0,0,0,0,0,0,0,0,0,0,0,0,0,0,0,0,0,0,0,0,0,0,0,0,0,0,0,0,0,0,0,0,0,0,0,0,0,0,0],"sum_hessian":[1.688E3,1.282E3,4.06E2,7.26E2,5.56E2,4.01E2,5E0,4.98E2,2.28E2,1.38E2,4.18E2,2.94E2,1.07E2,1E0,4E0,3.59E2,1.39E2,6.5E1,1.63E2,1.17E2,2.1E1,2.02E2,2.16E2,7.4E1,2.2E2,8.6E1,2.1E1,1E0,3E0,3.41E2,1.8E1,8.5E1,5.4E1,9E0,5.6E1,1.32E2,3.1E1,1.1E1,1.06E2,2E1,1E0,1.71E2,3.1E1,1.95E2,2.1E1,2.2E1,5.2E1,1.8E2,4E1,1.2E1,7.4E1,5E0,1.6E1],"tree_param":{"num_deleted":"0","num_feature":"12","num_nodes":"53","size_leaf_vector":"1"}},{"base_weights":[2.4994187E-2,-2.5398314E-1,5.9542537E-1,-4.450769E-1,-4.99666E-2,4.9466485E-1,2.0399137E0,-4.8406172E-1,-3.4797382E-1,8.1616974E-1,-1.0130809E-1,2.1610792E0,4.545638E-1,1.8217402E0,4.8379946E-1,-4.955642E-1,-8.847981E-2,2.4890336E-1,-4.6083304E-1,6.1990905E-1,2.4412994E-1,1.5062972E-3,-3.2181066E-1,1.3446991E-1,2.7533429E0,2.1482144E-1,7.535594E-1,2.526988E-1,1.1664547E0,-4.441695E-2,-5.7228696E-2,2.3427522E-2,-3.9859485E-2,1.9191544E-1,1.1596243E-2,-1.9408833E-2,-5.2873094E-2,7.341329E-2,-6.1474163E-2,-2.1046279E-2,2.2816973E-2,-5.482907E-2,-2.1369444E-2,6.368976E-2,3.0492523E-1,3.4946557E-2,-2.372471E-2,1.4393947E-1,5.8545988E-2,6.0999013E-2,2.1127474E-1],"categories":[],"categories_nodes":[],"categories_segments":[],"categories_sizes":[],"default_left":[0,0,0,0,0,0,0,0,0,0,0,0,0,0,0,0,0,0,0,0,0,0,0,0,0,0,0,0,0,0,0,0,0,0,0,0,0,0,0,0,0,0,0,0,0,0,0,0,0,0,0],"id":25,"left_children":[1,3,5,7,9,11,13,15,17,19,21,23,25,27,-1,29,31,33,35,37,-1,39,41,-1,43,45,47,-1,49,-1,-1,-1,-1,-1,-1,-1,-1,-1,-1,-1,-1,-1,-1,-1,-1,-1,-1,-1,-1,-1,-1],"loss_changes":[2.6988907E2,4.438314E1,8.006084E1,2.0574722E0,2.4629425E1,3.390029E1,1.3163254E1,1.8535843E0,1.1701157E1,8.374035E0,1.1834663E1,2.0997276E0,3.6467583E1,1.32272415E1,0E0,1.3427734E0,1.3945664E0,5.9947033E0,2.523529E0,4.541072E0,0E0,1.7200314E1,3.9475365E0,0E0,1.8155937E0,1.7430393E1,2.532779E1,0E0,9.242811E0,0E0,0E0,0E0,0E0,0E0,0E0,0E0,0E0,0E0,0E0,0E0,0E0,0E0,0E0,0E0,0E0,0E0,0E0,0E0,0E0,0E0,0E0],"parents":[2147483647,0,0,1,1,2,2,3,3,4,4,5,5,6,6,7,7,8,8,9,9,10,10,11,11,12,12,13,13,15,15,16,16,17,17,18,18,19,19,21,21,22,22,24,24,25,25,26,26,28,28],"right_children":[2,4,6,8,10,12,14,16,18,20,22,24,26,28,-1,30,32,34,36,38,-1,40,42,-1,44,46,48,-1,50,-1,-1,-1,-1,-1,-1,-1,-1,-1,-1,-1,-1,-1,-1,-1,-1,-1,-1,-1,-1,-1,-1],"split_conditions":[2.08E2,3.9E1,1.04E3,8E0,1E1,1.7E1,8.5E1,7E0,6E0,9.8E1,2.3E1,1.05E2,4.14E2,5.3E1,4.8379946E-1,1E0,1.26E2,2E0,8E0,5E1,2.4412994E-1,9.1E1,1.15E2,1.3446991E-1,3E1,3.5E1,3.2E1,2.526988E-1,1.608E3,-4.441695E-2,-5.7228696E-2,2.3427522E-2,-3.9859485E-2,1.9191544E-1,1.1596243E-2,-1.9408833E-2,-5.2873094E-2,7.341329E-2,-6.1474163E-2,-2.1046279E-2,2.2816973E-2,-5.482907E-2,-2.1369444E-2,6.368976E-2,3.0492523E-1,3.4946557E-2,-2.372471E-2,1.4393947E-1,5.8545988E-2,6.0999013E-2,2.1127474E-1],"split_indices":[4,4,4,4,1,1,1,5,1,5,1,5,4,1,0,2,7,1,1,3,0,4,4,0,0,1,1,0,4,0,0,0,0,0,0,0,0,0,0,0,0,0,0,0,0,0,0,0,0,0,0],"split_type":[0,0,0,0,0,0,0,0,0,0,0,0,0,0,0,0,0,0,0,0,0,0,0,0,0,0,0,0,0,0,0,0,0,0,0,0,0,0,0,0,0,0,0,0,0,0,0,0,0,0,0],"sum_hessian":[1.694E3,1.138E3,5.56E2,5.87E2,5.51E2,5.21E2,3.5E1,4.16E2,1.71E2,3E1,5.21E2,1.1E1,5.1E2,3.4E1,1E0,4.04E2,1.2E1,2.7E1,1.44E2,2.8E1,2E0,3.56E2,1.65E2,6E0,5E0,2.84E2,2.26E2,1.5E1,1.9E1,2.46E2,1.58E2,6E0,6E0,1E0,2.6E1,3E1,1.14E2,2.6E1,2E0,1.84E2,1.72E2,5.2E1,1.13E2,1E0,4E0,2.19E2,6.5E1,4.3E1,1.83E2,1.3E1,6E0],"tree_param":{"num_deleted":"0","num_feature":"12","num_nodes":"51","size_leaf_vector":"1"}},{"base_weights":[1.8682826E-2,-1.9120644E-1,6.8772405E-1,-3.7282884E-1,1.054458E-2,6.3707334E-1,3.3969748E0,-4.2007387E-1,-2.1185644E-1,3.4289283E-1,-1.1963037E-1,5.3567547E-1,1.2819579E0,8.5771877E-1,4.2411337E0,-3.959397E-1,-5.9448105E-1,2.805987E-1,-3.8430202E-1,1.4952703E-1,1.0734106E0,-3.4397766E-1,-4.6780832E-2,4.2415923E-1,1.0234628E0,1.9791825E0,9.988013E-1,2.257309E-2,1.0608473E-1,5.265942E-2,5.03812E-1,-4.0786665E-2,3.154964E-2,-4.9690813E-2,-8.540726E-2,7.7961616E-2,2.0349631E-2,-2.3395438E-2,-5.132099E-2,1.843927E-1,8.320759E-3,1.6655532E-1,8.3627395E-2,-2.2115078E-2,-4.603144E-2,3.9146724E-3,-3.1938665E-2,5.4241415E-2,-2.6687294E-2,2.5987804E-1,8.3968446E-2,2.759664E-1,1.5154454E-1,2.570111E-2,1.1003289E-1],"categories":[],"categories_nodes":[],"categories_segments":[],"categories_sizes":[],"default_left":[0,0,0,0,0,0,0,0,0,0,0,0,0,0,0,0,0,0,0,0,0,0,0,0,0,0,0,0,0,0,0,0,0,0,0,0,0,0,0,0,0,0,0,0,0,0,0,0,0,0,0,0,0,0,0],"id":26,"left_children":[1,3,5,7,9,11,13,15,17,19,21,23,25,27,29,31,33,35,37,39,41,43,45,47,49,51,53,-1,-1,-1,-1,-1,-1,-1,-1,-1,-1,-1,-1,-1,-1,-1,-1,-1,-1,-1,-1,-1,-1,-1,-1,-1,-1,-1,-1],"loss_changes":[2.316916E2,4.6026913E1,5.1902725E1,4.9380035E0,2.5826014E1,2.468457E1,1.136705E1,1.9113007E0,1.3015934E1,2.3570705E1,6.9953113E0,1.7897415E1,8.289215E0,1.4565825E-1,1.2149139E1,3.9555206E0,1.0953484E0,1.3803687E0,2.0699844E0,1.4904372E1,3.5217972E0,1.3985758E0,7.6254163E0,2.269891E1,1.5767418E1,8.850136E-1,2.6543808E0,0E0,0E0,0E0,0E0,0E0,0E0,0E0,0E0,0E0,0E0,0E0,0E0,0E0,0E0,0E0,0E0,0E0,0E0,0E0,0E0,0E0,0E0,0E0,0E0,0E0,0E0,0E0,0E0],"parents":[2147483647,0,0,1,1,2,2,3,3,4,4,5,5,6,6,7,7,8,8,9,9,10,10,11,11,12,12,13,13,14,14,15,15,16,16,17,17,18,18,19,19,20,20,21,21,22,22,23,23,24,24,25,25,26,26],"right_children":[2,4,6,8,10,12,14,16,18,20,22,24,26,28,30,32,34,36,38,40,42,44,46,48,50,52,54,-1,-1,-1,-1,-1,-1,-1,-1,-1,-1,-1,-1,-1,-1,-1,-1,-1,-1,-1,-1,-1,-1,-1,-1,-1,-1,-1,-1],"split_conditions":[2.88E2,6E1,1.608E3,2.4E1,1.8E1,1.17E2,5.4E1,6E0,1E1,1.4E2,1.1E2,7.4E2,2.35E2,1.8E1,5.7E1,1.6E1,1E0,6E0,1.6E1,7E0,1.4E1,2.2E1,3.1E1,4.2E1,3.9E1,6E0,3.99E2,2.257309E-2,1.0608473E-1,5.265942E-2,5.03812E-1,-4.0786665E-2,3.154964E-2,-4.9690813E-2,-8.540726E-2,7.7961616E-2,2.0349631E-2,-2.3395438E-2,-5.132099E-2,1.843927E-1,8.320759E-3,1.6655532E-1,8.3627395E-2,-2.2115078E-2,-4.603144E-2,3.9146724E-3,-3.1938665E-2,5.4241415E-2,-2.6687294E-2,2.5987804E-1,8.3968446E-2,2.759664E-1,1.5154454E-1,2.570111E-2,1.1003289E-1],"split_indices":[4,4,4,4,1,5,0,2,1,4,4,4,3,0,1,5,5,1,1,1,1,1,1,1,1,2,4,0,0,0,0,0,0,0,0,0,0,0,0,0,0,0,0,0,0,0,0,0,0,0,0,0,0,0,0],"split_type":[0,0,0,0,0,0,0,0,0,0,0,0,0,0,0,0,0,0,0,0,0,0,0,0,0,0,0,0,0,0,0,0,0,0,0,0,0,0,0,0,0,0,0,0,0,0,0,0,0,0,0,0,0,0,0],"sum_hessian":[1.648E3,1.255E3,3.93E2,6.6E2,5.95E2,3.87E2,6E0,5.09E2,1.51E2,1.67E2,4.28E2,3.36E2,5.1E1,2E0,4E0,4.5E2,5.9E1,3.9E1,1.12E2,1.33E2,3.4E1,1.04E2,3.24E2,2.75E2,6.1E1,1.3E1,3.8E1,1E0,1E0,1E0,3E0,4.43E2,7E0,4.5E1,1.4E1,4E0,3.5E1,5.3E1,5.9E1,4E0,1.29E2,8E0,2.6E1,5.2E1,5.2E1,2.47E2,7.7E1,2.35E2,4E1,5E0,5.6E1,3E0,1E1,5E0,3.3E1],"tree_param":{"num_deleted":"0","num_feature":"12","num_nodes":"55","size_leaf_vector":"1"}},{"base_weights":[1.6651392E-2,-1.8729419E-1,6.038281E-1,-3.310146E-1,5.7031535E-2,5.030743E-1,1.6849076E0,-3.353745E-1,1.5675426E-1,5.2395195E-1,-7.744428E-2,1.2145244E0,4.1693735E-1,1.4224963E0,4.184737E-1,-3.9988533E-1,-2.2467855E-1,3.2310936E-1,1.121777E0,-2.069841E-2,-4.0387514E-1,9.179621E-2,1.6576004E0,9.312782E-2,6.414946E-1,2.288729E-1,8.7103885E-1,-3.766599E-2,-5.2100975E-2,4.657659E-3,-3.5576936E-2,9.530257E-2,2.0887595E-2,1.8897474E-1,7.968986E-2,-1.5460725E-2,9.206432E-3,-5.699273E-2,-2.167146E-2,1.7571157E-1,8.243561E-3,1.8689184E-2,-5.5825185E-2,9.127235E-2,3.1390227E-2,5.4571945E-2,1.7018239E-1],"categories":[],"categories_nodes":[],"categories_segments":[],"categories_sizes":[],"default_left":[0,0,0,0,0,0,0,0,0,0,0,0,0,0,0,0,0,0,0,0,0,0,0,0,0,0,0,0,0,0,0,0,0,0,0,0,0,0,0,0,0,0,0,0,0,0,0],"id":27,"left_children":[1,3,5,7,9,11,13,15,-1,17,19,21,23,25,-1,27,29,31,33,35,37,-1,39,41,43,-1,45,-1,-1,-1,-1,-1,-1,-1,-1,-1,-1,-1,-1,-1,-1,-1,-1,-1,-1,-1,-1],"loss_changes":[2.0393114E2,4.4403732E1,4.6969482E1,7.1145782E0,2.9488855E1,2.4190315E1,1.8318611E1,5.5873184E0,0E0,1.2244762E1,6.752756E0,4.1285667E0,2.618993E1,1.4725601E1,0E0,1.21315E0,1.050649E1,5.557534E0,4.9809837E0,4.725411E0,1.5547228E0,0E0,2.3632011E0,9.204653E0,1.8639076E1,0E0,5.2875004E0,0E0,0E0,0E0,0E0,0E0,0E0,0E0,0E0,0E0,0E0,0E0,0E0,0E0,0E0,0E0,0E0,0E0,0E0,0E0,0E0],"parents":[2147483647,0,0,1,1,2,2,3,3,4,4,5,5,6,6,7,7,9,9,10,10,11,11,12,12,13,13,15,15,16,16,17,17,18,18,19,19,20,20,22,22,23,23,24,24,26,26],"right_children":[2,4,6,8,10,12,14,16,-1,18,20,22,24,26,-1,28,30,32,34,36,38,-1,40,42,44,-1,46,-1,-1,-1,-1,-1,-1,-1,-1,-1,-1,-1,-1,-1,-1,-1,-1,-1,-1,-1,-1],"split_conditions":[2.7E2,8.8E1,1.08E3,7.5E1,1.8E1,2.5E1,8.5E1,2.1E1,1.5675426E-1,1.55E2,3.3E1,3.38E2,4.14E2,5.3E1,4.184737E-1,5E0,1.3E1,1.1E1,1.4E1,1.62E2,2.03E2,9.179621E-2,2.94E2,4E1,4E1,2.288729E-1,1.608E3,-3.766599E-2,-5.2100975E-2,4.657659E-3,-3.5576936E-2,9.530257E-2,2.0887595E-2,1.8897474E-1,7.968986E-2,-1.5460725E-2,9.206432E-3,-5.699273E-2,-2.167146E-2,1.7571157E-1,8.243561E-3,1.8689184E-2,-5.5825185E-2,9.127235E-2,3.1390227E-2,5.4571945E-2,1.7018239E-1],"split_indices":[4,4,4,5,1,1,1,4,0,4,1,4,4,1,0,2,1,1,1,4,4,0,7,1,1,0,4,0,0,0,0,0,0,0,0,0,0,0,0,0,0,0,0,0,0,0,0],"split_type":[0,0,0,0,0,0,0,0,0,0,0,0,0,0,0,0,0,0,0,0,0,0,0,0,0,0,0,0,0,0,0,0,0,0,0,0,0,0,0,0,0,0,0,0,0,0,0],"sum_hessian":[1.701E3,1.263E3,4.38E2,7.95E2,4.68E2,4.02E2,3.6E1,7.94E2,1E0,1.04E2,3.64E2,4.2E1,3.6E2,3.4E1,2E0,5E2,2.94E2,7.9E1,2.5E1,3.11E2,5.3E1,2.7E1,1.5E1,1.48E2,2.12E2,1.2E1,2.2E1,4.23E2,7.7E1,9.6E1,1.98E2,1.1E1,6.8E1,6E0,1.9E1,1.42E2,1.69E2,2.7E1,2.6E1,1.4E1,1E0,1.3E2,1.8E1,1.15E2,9.7E1,1.7E1,5E0],"tree_param":{"num_deleted":"0","num_feature":"12","num_nodes":"47","size_leaf_vector":"1"}},{"base_weights":[2.750119E-2,-1.3836282E-1,6.5012354E-1,-2.919461E-1,5.470976E-2,5.4527736E-1,1.7918594E0,-3.488118E-1,-1.972793E-1,5.6599075E-1,-2.773253E-2,7.127245E-1,1.973406E-1,1.3320733E0,3.0466049E0,-2.9606453E-1,-4.3181705E-1,5.7929945E-1,-2.3463118E-1,4.5005247E-1,2.2382425E-1,4.903386E-2,-2.3735525E-1,5.535594E-1,1.7254648E0,-2.4534333E-1,4.483308E-1,2.0790174E0,5.9757656E-1,9.230814E-1,4.4084772E-1,-3.103738E-2,1.862423E-1,-4.504357E-2,-3.077935E-2,2.2989908E-2,9.486168E-2,-1.185354E-2,-3.7607193E-2,3.0864222E-2,9.69889E-2,-1.0328359E-2,2.5999656E-2,-4.0198203E-2,-8.3297575E-3,9.519602E-2,3.515688E-2,1.3704585E-1,2.4860492E-1,4.744163E-5,-6.8433754E-2,5.83707E-2,-3.0622829E-2,2.5016582E-1,1.3098736E-1,8.433292E-2,-5.0270844E-2,1.1030413E-1,1.916008E-2],"categories":[],"categories_nodes":[],"categories_segments":[],"categories_sizes":[],"default_left":[0,0,0,0,0,0,0,0,0,0,0,0,0,0,0,0,0,0,0,0,0,0,0,0,0,0,0,0,0,0,0,0,0,0,0,0,0,0,0,0,0,0,0,0,0,0,0,0,0,0,0,0,0,0,0,0,0,0,0],"id":28,"left_children":[1,3,5,7,9,11,13,15,17,19,21,23,25,27,29,31,33,35,37,39,-1,41,43,45,47,49,51,53,55,57,-1,-1,-1,-1,-1,-1,-1,-1,-1,-1,-1,-1,-1,-1,-1,-1,-1,-1,-1,-1,-1,-1,-1,-1,-1,-1,-1,-1,-1],"loss_changes":[1.7182904E2,3.897965E1,4.0920258E1,3.8717537E0,2.4589832E1,1.8619392E1,1.2672218E1,1.8686562E0,8.170769E0,1.4696791E1,8.105905E0,3.402372E1,1.1887583E1,1.1376072E1,1.6174393E1,9.288021E0,2.6546097E-1,1.4594288E0,4.306902E0,5.360938E0,0E0,1.1884042E1,3.390388E0,1.487476E1,4.4233246E0,4.208914E0,7.1249027E0,2.989273E-1,3.9391212E0,3.152051E-1,0E0,0E0,0E0,0E0,0E0,0E0,0E0,0E0,0E0,0E0,0E0,0E0,0E0,0E0,0E0,0E0,0E0,0E0,0E0,0E0,0E0,0E0,0E0,0E0,0E0,0E0,0E0,0E0,0E0],"parents":[2147483647,0,0,1,1,2,2,3,3,4,4,5,5,6,6,7,7,8,8,9,9,10,10,11,11,12,12,13,13,14,14,15,15,16,16,17,17,18,18,19,19,21,21,22,22,23,23,24,24,25,25,26,26,27,27,28,28,29,29],"right_children":[2,4,6,8,10,12,14,16,18,20,22,24,26,28,30,32,34,36,38,40,-1,42,44,46,48,50,52,54,56,58,-1,-1,-1,-1,-1,-1,-1,-1,-1,-1,-1,-1,-1,-1,-1,-1,-1,-1,-1,-1,-1,-1,-1,-1,-1,-1,-1,-1,-1],"split_conditions":[3.25E2,8E1,1.197E3,1.5E1,1.6E1,4.1E1,4.032E3,2E0,6E0,1.32E2,3E1,6.44E2,6.58E2,5.3E1,5.7E1,6E0,1.2E1,2.1E1,1.6E1,1.36E2,2.2382425E-1,1.76E2,2.24E2,3E1,8.32E2,4.7E1,5.4E1,5.1E1,6.7E1,7E0,4.4084772E-1,-3.103738E-2,1.862423E-1,-4.504357E-2,-3.077935E-2,2.2989908E-2,9.486168E-2,-1.185354E-2,-3.7607193E-2,3.0864222E-2,9.69889E-2,-1.0328359E-2,2.5999656E-2,-4.0198203E-2,-8.3297575E-3,9.519602E-2,3.515688E-2,1.3704585E-1,2.4860492E-1,4.744163E-5,-6.8433754E-2,5.83707E-2,-3.0622829E-2,2.5016582E-1,1.3098736E-1,8.433292E-2,-5.0270844E-2,1.1030413E-1,1.916008E-2],"split_indices":[4,4,4,4,1,1,6,1,1,5,1,4,4,1,1,4,4,4,1,4,0,4,4,1,4,1,1,1,1,2,0,0,0,0,0,0,0,0,0,0,0,0,0,0,0,0,0,0,0,0,0,0,0,0,0,0,0,0,0],"split_type":[0,0,0,0,0,0,0,0,0,0,0,0,0,0,0,0,0,0,0,0,0,0,0,0,0,0,0,0,0,0,0,0,0,0,0,0,0,0,0,0,0,0,0,0,0,0,0,0,0,0,0,0,0,0,0,0,0,0,0],"sum_hessian":[1.662E3,1.313E3,3.49E2,7.31E2,5.82E2,3.21E2,2.8E1,4.55E2,2.76E2,8E1,5.02E2,2.16E2,1.05E2,2.2E1,6E0,2.81E2,1.74E2,1.2E1,2.64E2,7.6E1,4E0,3.68E2,1.34E2,1.88E2,2.8E1,3.8E1,6.7E1,1E1,1.2E1,3E0,3E0,2.8E2,1E0,1.49E2,2.5E1,7E0,5E0,1.46E2,1.18E2,6.1E1,1.5E1,2.14E2,1.54E2,6.4E1,7E1,6.2E1,1.26E2,2.1E1,7E0,2.5E1,1.3E1,5.7E1,1E1,5E0,5E0,1E1,2E0,2E0,1E0],"tree_param":{"num_deleted":"0","num_feature":"12","num_nodes":"59","size_leaf_vector":"1"}},{"base_weights":[2.4872705E-2,-1.0830414E-1,6.129186E-1,-2.4219555E-1,9.519329E-2,5.5866766E-1,2.3652377E0,-2.498643E-1,1.9448866E-1,2.9036593E-1,-6.216482E-2,4.660764E-1,1.0909964E0,8.5114634E-1,3.4062817E0,-3.126202E-1,-1.5303898E-1,2.1578579E-1,8.3327526E-1,-2.1920789E-2,-6.285096E-1,5.249504E-1,-1.3227113E-1,1.4678004E0,6.831405E-1,1.5448761E-2,9.866891E-2,3.6002066E-2,4.077842E-1,-2.9153291E-2,-4.775516E-2,3.5136312E-2,-2.09135E-2,7.411675E-2,1.2988666E-2,6.2246718E-2,1.0448493E-1,-1.432602E-2,1.1996358E-2,-4.8661303E-2,-1.0744428E-1,3.7615858E-2,9.649503E-2,-7.789406E-2,1.2655984E-2,1.1719691E-1,2.2392331E-1,4.4098828E-2,1.173633E-1],"categories":[],"categories_nodes":[],"categories_segments":[],"categories_sizes":[],"default_left":[0,0,0,0,0,0,0,0,0,0,0,0,0,0,0,0,0,0,0,0,0,0,0,0,0,0,0,0,0,0,0,0,0,0,0,0,0,0,0,0,0,0,0,0,0,0,0,0,0],"id":29,"left_children":[1,3,5,7,9,11,13,15,-1,17,19,21,23,25,27,29,31,33,35,37,39,41,43,45,47,-1,-1,-1,-1,-1,-1,-1,-1,-1,-1,-1,-1,-1,-1,-1,-1,-1,-1,-1,-1,-1,-1,-1,-1],"loss_changes":[1.3147743E2,3.7323593E1,2.8148773E1,1.4339783E1,1.6725378E1,1.4376785E1,1.1286877E1,4.9590797E0,0E0,9.659327E0,6.869405E0,9.19326E0,5.759289E0,3.1970406E-1,8.760632E0,1.5962791E0,9.297637E0,9.606645E0,6.430588E-1,4.889361E0,7.426901E-1,1.508757E1,4.1156564E0,2.396389E0,2.21424E0,0E0,0E0,0E0,0E0,0E0,0E0,0E0,0E0,0E0,0E0,0E0,0E0,0E0,0E0,0E0,0E0,0E0,0E0,0E0,0E0,0E0,0E0,0E0,0E0],"parents":[2147483647,0,0,1,1,2,2,3,3,4,4,5,5,6,6,7,7,9,9,10,10,11,11,12,12,13,13,14,14,15,15,16,16,17,17,18,18,19,19,20,20,21,21,22,22,23,23,24,24],"right_children":[2,4,6,8,10,12,14,16,-1,18,20,22,24,26,28,30,32,34,36,38,40,42,44,46,48,-1,-1,-1,-1,-1,-1,-1,-1,-1,-1,-1,-1,-1,-1,-1,-1,-1,-1,-1,-1,-1,-1,-1,-1],"split_conditions":[3.6E2,9.5E1,1.608E3,7.5E1,2.4E1,1.17E2,4.032E3,2.4E1,1.9448866E-1,2.56E2,3.9E1,5.3E1,8E0,1.8E1,5.7E1,9E0,9E0,1.4E1,2.96E2,2.32E2,4.4E1,6.97E2,3E1,1.44E2,2.64E2,1.5448761E-2,9.866891E-2,3.6002066E-2,4.077842E-1,-2.9153291E-2,-4.775516E-2,3.5136312E-2,-2.09135E-2,7.411675E-2,1.2988666E-2,6.2246718E-2,1.0448493E-1,-1.432602E-2,1.1996358E-2,-4.8661303E-2,-1.0744428E-1,3.7615858E-2,9.649503E-2,-7.789406E-2,1.2655984E-2,1.1719691E-1,2.2392331E-1,4.4098828E-2,1.173633E-1],"split_indices":[4,4,4,5,1,5,6,4,0,4,1,1,2,0,1,1,1,1,4,4,1,4,0,5,5,0,0,0,0,0,0,0,0,0,0,0,0,0,0,0,0,0,0,0,0,0,0,0,0],"split_type":[0,0,0,0,0,0,0,0,0,0,0,0,0,0,0,0,0,0,0,0,0,0,0,0,0,0,0,0,0,0,0,0,0,0,0,0,0,0,0,0,0,0,0,0,0,0,0,0,0],"sum_hessian":[1.677E3,1.368E3,3.09E2,8.25E2,5.43E2,3.01E2,8E0,8.23E2,2E0,2.42E2,3.01E2,2.58E2,4.3E1,4E0,4E0,4.98E2,3.25E2,2.14E2,2.8E1,2.82E2,1.9E1,2.35E2,2.3E1,2.1E1,2.2E1,1E0,3E0,1E0,3E0,4.44E2,5.4E1,3.2E1,2.93E2,2.9E1,1.85E2,1.6E1,1.2E1,1.52E2,1.3E2,1.6E1,3E0,1.77E2,5.8E1,6E0,1.7E1,1.7E1,4E0,1.6E1,6E0],"tree_param":{"num_deleted":"0","num_feature":"12","num_nodes":"49","size_leaf_vector":"1"}},{"base_weights":[1.1238277E-2,-1.7826873E-1,3.5045293E-1,-2.5591314E-1,-5.0694656E-2,2.4129778E-1,9.5648867E-1,-2.4293217E-1,-4.6643892E-1,2.883196E-1,-1.1874506E-1,9.0746766E-1,1.8163513E-1,8.854471E-1,3.7106362E-1,-2.900492E-1,-1.2737998E-1,-5.337699E-1,-3.5186708E-2,1.7916524E-1,6.3869554E-1,-8.4595576E-2,-4.076144E-1,1.8438815E-1,7.603746E-1,2.152524E-1,-6.329695E-1,2.2044794E-1,7.8312564E-1,-2.4355652E-2,-3.6992624E-2,4.8253495E-2,-1.9158762E-2,-2.2863826E-2,-5.5285115E-2,2.4955783E-2,-2.5678683E-2,8.076353E-2,1.05500985E-2,-2.0369165E-2,-3.4493103E-3,-5.1683754E-2,-2.3878317E-2,8.039656E-2,-4.2624712E-2,7.6616644E-3,4.9110778E-2,-8.276723E-2,-2.6179409E-2,5.3148855E-2,1.15235046E-1],"categories":[],"categories_nodes":[],"categories_segments":[],"categories_sizes":[],"default_left":[0,0,0,0,0,0,0,0,0,0,0,0,0,0,0,0,0,0,0,0,0,0,0,0,0,0,0,0,0,0,0,0,0,0,0,0,0,0,0,0,0,0,0,0,0,0,0,0,0,0,0],"id":30,"left_children":[1,3,5,7,9,11,13,15,17,19,21,23,25,27,-1,29,31,33,-1,35,37,39,41,-1,43,45,47,-1,49,-1,-1,-1,-1,-1,-1,-1,-1,-1,-1,-1,-1,-1,-1,-1,-1,-1,-1,-1,-1,-1,-1],"loss_changes":[1.0850883E2,1.0714588E1,3.9791115E1,1.7258797E0,9.51603E0,2.0264332E1,1.4715057E1,3.425743E0,1.053257E-1,2.5244765E0,3.349123E0,4.3830376E0,1.3089249E1,1.0555458E1,0E0,1.5847778E0,7.3764286E0,1.6875267E-3,0E0,1.7212237E0,1.3560376E0,1.830812E0,5.404377E-1,0E0,2.308279E0,1.7363123E1,1.1564298E0,0E0,7.3778534E0,0E0,0E0,0E0,0E0,0E0,0E0,0E0,0E0,0E0,0E0,0E0,0E0,0E0,0E0,0E0,0E0,0E0,0E0,0E0,0E0,0E0,0E0],"parents":[2147483647,0,0,1,1,2,2,3,3,4,4,5,5,6,6,7,7,8,8,9,9,10,10,11,11,12,12,13,13,15,15,16,16,17,17,19,19,20,20,21,21,22,22,24,24,25,25,26,26,28,28],"right_children":[2,4,6,8,10,12,14,16,18,20,22,24,26,28,-1,30,32,34,-1,36,38,40,42,-1,44,46,48,-1,50,-1,-1,-1,-1,-1,-1,-1,-1,-1,-1,-1,-1,-1,-1,-1,-1,-1,-1,-1,-1,-1,-1],"split_conditions":[1.8E2,6E1,7.4E2,2E1,1.4E1,2E1,8.5E1,1.2E1,3.8E1,1.1E2,3E1,1.4E1,4.9E1,3.7E1,3.7106362E-1,2E0,6E0,1E0,-3.5186708E-2,3.7E1,4.5E1,9E1,1.19E2,1.8438815E-1,3.9E2,4.14E2,6.12E2,2.2044794E-1,1.08E3,-2.4355652E-2,-3.6992624E-2,4.8253495E-2,-1.9158762E-2,-2.2863826E-2,-5.5285115E-2,2.4955783E-2,-2.5678683E-2,8.076353E-2,1.05500985E-2,-2.0369165E-2,-3.4493103E-3,-5.1683754E-2,-2.3878317E-2,8.039656E-2,-4.2624712E-2,7.6616644E-3,4.9110778E-2,-8.276723E-2,-2.6179409E-2,5.3148855E-2,1.15235046E-1],"split_indices":[4,4,4,1,1,1,1,4,4,4,1,1,1,1,0,1,1,4,0,3,3,4,4,0,7,4,4,0,4,0,0,0,0,0,0,0,0,0,0,0,0,0,0,0,0,0,0,0,0,0,0],"split_type":[0,0,0,0,0,0,0,0,0,0,0,0,0,0,0,0,0,0,0,0,0,0,0,0,0,0,0,0,0,0,0,0,0,0,0,0,0,0,0,0,0,0,0,0,0,0,0,0,0,0,0],"sum_hessian":[1.686E3,1.082E3,6.04E2,6.72E2,4.1E2,5.13E2,9.1E1,6.35E2,